#ifndef WEIGHTS_H
#define WEIGHTS_H

#define INPUT_SIZE 784
#define HIDDEN_SIZE 256
#define OUTPUT_SIZE 10

static const float HIDDEN_WEIGHTS[INPUT_SIZE * HIDDEN_SIZE] = {
     -0.063398f,     -0.038404f,     -0.000072f,      0.031433f,      0.077239f,      0.006919f,      0.050308f,      0.007158f,
     -0.107307f,     -0.002283f,      0.001885f,     -0.063003f,     -0.050059f,     -0.027724f,     -0.029496f,      0.038931f,
      0.020956f,      0.061143f,      0.067697f,     -0.009141f,     -0.012466f,      0.009349f,     -0.046697f,     -0.005823f,
     -0.016612f,      0.068281f,      0.003079f,     -0.037822f,      0.037113f,      0.007934f,     -0.000737f,     -0.008531f,
      0.028969f,     -0.032033f,      0.014142f,      0.015976f,      0.010616f,     -0.069056f,      0.008475f,     -0.087802f,
     -0.035347f,     -0.057169f,      0.076086f,     -0.021040f,      0.081010f,      0.025887f,     -0.073499f,     -0.035405f,
     -0.010200f,      0.028482f,     -0.007791f,      0.008450f,      0.008002f,     -0.028291f,      0.070764f,      0.064921f,
     -0.039684f,     -0.018063f,     -0.044800f,     -0.042688f,      0.053766f,     -0.044858f,      0.055225f,     -0.008411f,
      0.001052f,     -0.067983f,      0.032587f,     -0.050395f,     -0.059862f,     -0.073757f,      0.013633f,      0.008576f,
     -0.026527f,     -0.057078f,     -0.027526f,     -0.105776f,     -0.035935f,      0.047750f,      0.037225f,      0.056620f,
      0.005970f,     -0.041048f,      0.017008f,      0.003350f,      0.051064f,     -0.007087f,     -0.061713f,      0.058081f,
      0.101524f,      0.030625f,     -0.044506f,     -0.015506f,      0.061218f,      0.004313f,      0.015405f,      0.014972f,
      0.025574f,     -0.009312f,      0.109698f,     -0.012141f,      0.016336f,      0.092032f,     -0.035922f,     -0.016472f,
     -0.015582f,     -0.008386f,     -0.033852f,      0.043756f,      0.063651f,     -0.016010f,     -0.095196f,      0.075508f,
     -0.011210f,     -0.036442f,     -0.072445f,      0.092376f,      0.012754f,      0.111206f,      0.026055f,     -0.054726f,
     -0.047373f,      0.034726f,     -0.019189f,      0.003650f,     -0.039982f,     -0.056968f,     -0.081371f,     -0.057389f,
      0.021006f,      0.042664f,     -0.007065f,      0.078499f,     -0.028348f,     -0.008096f,     -0.079821f,     -0.029552f,
     -0.022141f,     -0.011791f,     -0.012136f,     -0.017956f,     -0.081783f,     -0.000877f,     -0.077877f,      0.029035f,
      0.065546f,      0.098496f,     -0.067957f,      0.050495f,      0.037829f,      0.092124f,      0.057205f,     -0.040608f,
      0.024863f,     -0.096448f,      0.039934f,      0.007010f,      0.058980f,     -0.091810f,      0.076376f,     -0.020583f,
     -0.070757f,     -0.036011f,     -0.007544f,      0.038478f,     -0.030451f,     -0.004386f,     -0.062761f,      0.045639f,
      0.005111f,     -0.025875f,     -0.031608f,      0.007002f,     -0.056038f,      0.014266f,      0.002859f,     -0.053188f,
      0.007319f,      0.009646f,      0.004949f,     -0.012901f,     -0.033916f,      0.013046f,     -0.079013f,     -0.069555f,
     -0.057163f,      0.065175f,     -0.011587f,     -0.030804f,      0.019628f,      0.016154f,      0.067048f,     -0.010283f,
      0.005036f,      0.055760f,      0.013786f,     -0.028765f,      0.012673f,     -0.007730f,     -0.058870f,      0.030017f,
     -0.079969f,     -0.080523f,     -0.039771f,     -0.129714f,     -0.051313f,      0.050487f,     -0.045792f,     -0.036604f,
     -0.094105f,      0.026004f,     -0.035364f,      0.005121f,      0.007084f,      0.008828f,     -0.021173f,      0.044192f,
     -0.015226f,     -0.073146f,     -0.042225f,     -0.008532f,     -0.031720f,     -0.009038f,      0.030091f,      0.014868f,
      0.004707f,      0.069013f,      0.001525f,      0.032513f,     -0.004287f,      0.012140f,     -0.026445f,     -0.035664f,
      0.114065f,      0.013323f,      0.003339f,      0.009254f,     -0.083349f,      0.058510f,     -0.049419f,      0.085141f,
      0.069745f,     -0.063790f,     -0.013963f,      0.038293f,      0.149511f,     -0.015468f,     -0.053518f,     -0.096243f,
      0.053617f,      0.035486f,     -0.030523f,      0.108696f,     -0.112487f,     -0.078417f,      0.122567f,      0.008881f,
      0.081977f,      0.028268f,      0.002230f,     -0.003007f,     -0.065490f,      0.025397f,     -0.007028f,     -0.076278f,
      0.044483f,     -0.071751f,     -0.060296f,     -0.056543f,     -0.106970f,      0.101538f,      0.032055f,      0.082365f,
      0.014339f,     -0.055026f,      0.077946f,     -0.044844f,      0.026521f,     -0.063231f,      0.004487f,      0.149877f,
     -0.027710f,      0.026114f,      0.026157f,      0.021517f,      0.012507f,     -0.027519f,      0.037340f,     -0.038200f,
     -0.094819f,     -0.063439f,     -0.003112f,      0.116103f,     -0.053441f,      0.062151f,     -0.081968f,      0.119394f,
     -0.021657f,     -0.057054f,      0.016206f,     -0.057064f,     -0.024549f,     -0.009094f,     -0.020051f,     -0.012590f,
     -0.013178f,      0.010384f,      0.125020f,     -0.084606f,     -0.057983f,     -0.000556f,     -0.082190f,      0.023771f,
      0.053577f,      0.059295f,      0.044064f,     -0.018078f,     -0.040717f,     -0.006482f,     -0.042694f,     -0.056997f,
      0.004666f,      0.052413f,     -0.075459f,     -0.012947f,      0.062745f,      0.040262f,      0.013614f,      0.006644f,
     -0.123809f,     -0.014125f,     -0.060574f,      0.034420f,     -0.017949f,     -0.057721f,      0.021747f,      0.021879f,
     -0.117312f,      0.019134f,     -0.010779f,      0.013952f,     -0.034903f,     -0.085090f,      0.006507f,     -0.034276f,
     -0.018707f,      0.024269f,     -0.069524f,      0.007740f,     -0.138339f,      0.006145f,     -0.076466f,     -0.025573f,
     -0.014185f,      0.024958f,     -0.024360f,     -0.016891f,      0.012830f,     -0.107231f,     -0.028125f,      0.080106f,
     -0.070864f,     -0.071336f,     -0.008281f,      0.035130f,      0.007113f,      0.086561f,     -0.040503f,     -0.067453f,
      0.034253f,     -0.043420f,     -0.009045f,     -0.021664f,     -0.032342f,      0.019137f,      0.090926f,     -0.011086f,
     -0.006705f,      0.007796f,     -0.049027f,     -0.078800f,      0.016291f,     -0.060960f,      0.033301f,     -0.005672f,
     -0.016688f,      0.035792f,     -0.001007f,      0.057307f,     -0.002658f,     -0.020802f,      0.049447f,     -0.010518f,
      0.093129f,     -0.027998f,     -0.025412f,     -0.014898f,     -0.028087f,     -0.038812f,     -0.016455f,      0.019478f,
      0.065273f,     -0.042740f,      0.068736f,     -0.019293f,     -0.095699f,      0.009942f,     -0.001680f,     -0.045080f,
     -0.024183f,     -0.061477f,      0.006359f,      0.010157f,     -0.030435f,      0.079718f,      0.056657f,     -0.082489f,
     -0.016854f,      0.120499f,     -0.003896f,     -0.040054f,      0.077238f,     -0.012092f,     -0.052736f,     -0.076972f,
     -0.024169f,     -0.089257f,      0.058265f,      0.041368f,     -0.005706f,      0.099409f,     -0.000974f,      0.016050f,
     -0.032738f,      0.027519f,     -0.096284f,     -0.054265f,      0.008562f,      0.012151f,     -0.032879f,      0.011403f,
      0.004722f,      0.010550f,     -0.026634f,      0.023655f,     -0.128478f,      0.025622f,      0.031270f,     -0.044105f,
     -0.056822f,     -0.026436f,      0.137857f,     -0.099195f,     -0.022356f,      0.056687f,     -0.046366f,     -0.060797f,
      0.039926f,      0.048335f,      0.055367f,     -0.009648f,     -0.075264f,      0.095709f,      0.019710f,      0.046531f,
      0.079528f,     -0.010570f,      0.098879f,     -0.021675f,      0.056600f,      0.056026f,     -0.032822f,     -0.048527f,
      0.000946f,     -0.071450f,      0.048775f,      0.024269f,      0.063071f,      0.013095f,     -0.027666f,      0.067195f,
      0.058419f,     -0.064465f,     -0.002474f,      0.020457f,      0.035369f,      0.018453f,      0.034052f,      0.044529f,
     -0.016157f,     -0.063991f,     -0.020891f,      0.060888f,     -0.064513f,      0.042013f,      0.003797f,     -0.029838f,
      0.000043f,      0.029244f,      0.001056f,     -0.098437f,      0.021319f,     -0.060237f,      0.039274f,      0.072323f,
     -0.001963f,      0.050771f,      0.116120f,     -0.093870f,      0.031377f,     -0.021516f,      0.060249f,     -0.045145f,
     -0.044771f,     -0.021583f,     -0.049511f,      0.067370f,     -0.043409f,      0.025046f,      0.054852f,      0.008670f,
     -0.047507f,     -0.009574f,      0.054648f,      0.104375f,     -0.030133f,     -0.080284f,      0.042335f,     -0.032733f,
     -0.046409f,     -0.007705f,      0.070267f,      0.035388f,     -0.029200f,      0.035251f,     -0.038701f,      0.023761f,
     -0.057728f,     -0.030301f,     -0.023575f,     -0.016082f,      0.057014f,      0.090630f,     -0.001982f,      0.019668f,
     -0.003828f,      0.013345f,     -0.059611f,      0.100969f,      0.014044f,      0.004497f,      0.006733f,     -0.009763f,
     -0.044488f,      0.069002f,      0.077389f,     -0.016055f,      0.018504f,     -0.006575f,      0.095012f,      0.017084f,
      0.009089f,     -0.062841f,     -0.049505f,     -0.019956f,     -0.072108f,      0.042115f,     -0.067600f,      0.004117f,
      0.090595f,     -0.036013f,     -0.147899f,      0.080727f,      0.052096f,     -0.043447f,     -0.022565f,      0.031598f,
      0.047630f,     -0.007898f,     -0.053314f,     -0.132511f,     -0.019196f,     -0.008118f,      0.108107f,     -0.041224f,
      0.051981f,      0.032493f,      0.079298f,     -0.006483f,     -0.019937f,      0.007715f,      0.064145f,     -0.022278f,
     -0.021222f,      0.082421f,     -0.027297f,      0.056740f,      0.024318f,      0.076261f,      0.000786f,      0.074161f,
      0.121643f,     -0.010275f,      0.101457f,      0.116779f,     -0.009612f,     -0.022876f,     -0.085601f,      0.066241f,
     -0.080175f,     -0.002013f,     -0.020825f,     -0.086907f,     -0.076252f,      0.047299f,     -0.022049f,     -0.030751f,
      0.041766f,     -0.023074f,      0.025462f,     -0.021442f,     -0.029227f,     -0.008106f,      0.009264f,      0.042767f,
      0.004804f,     -0.042965f,     -0.041043f,      0.006045f,     -0.083240f,     -0.008028f,      0.123900f,     -0.013077f,
     -0.023773f,     -0.007538f,      0.049466f,      0.102289f,      0.066840f,     -0.017041f,      0.027837f,      0.040960f,
      0.070895f,     -0.069152f,      0.046918f,     -0.068007f,     -0.021495f,     -0.094741f,     -0.075595f,      0.061147f,
     -0.069966f,     -0.023605f,      0.034232f,      0.042821f,      0.012905f,      0.027424f,      0.024161f,      0.000955f,
     -0.002401f,      0.044964f,      0.002908f,      0.029017f,      0.034257f,     -0.023153f,     -0.064004f,     -0.056491f,
     -0.020614f,      0.164517f,     -0.090287f,      0.061166f,     -0.066994f,      0.050693f,     -0.054616f,      0.024741f,
      0.003301f,      0.092894f,      0.001608f,      0.024919f,      0.009393f,      0.071325f,      0.008391f,      0.068820f,
     -0.089636f,     -0.001894f,      0.022012f,     -0.023697f,      0.010184f,      0.053456f,     -0.041262f,      0.005940f,
      0.039409f,     -0.029621f,     -0.006974f,     -0.049216f,      0.021204f,     -0.016800f,      0.028902f,      0.021736f,
     -0.023312f,      0.044400f,     -0.034557f,     -0.027103f,      0.067134f,     -0.086774f,      0.040678f,      0.028136f,
      0.054829f,      0.015023f,      0.031355f,     -0.003677f,      0.000512f,     -0.014572f,      0.052546f,     -0.048413f,
     -0.012619f,     -0.034628f,      0.072744f,     -0.013945f,      0.057245f,     -0.014162f,     -0.051021f,     -0.070319f,
     -0.055401f,     -0.012351f,     -0.052908f,     -0.082824f,     -0.028931f,      0.111738f,     -0.029663f,     -0.066804f,
      0.077030f,     -0.093811f,      0.082588f,      0.077513f,      0.034385f,     -0.041074f,     -0.053925f,      0.074620f,
      0.012479f,     -0.033534f,     -0.034608f,     -0.033460f,      0.004016f,     -0.042890f,      0.066260f,     -0.010175f,
     -0.027353f,      0.063236f,     -0.052343f,     -0.034136f,     -0.040260f,      0.055713f,     -0.077865f,      0.095014f,
     -0.033820f,     -0.073632f,      0.009202f,      0.085772f,     -0.002286f,      0.007813f,     -0.026568f,     -0.000380f,
      0.001460f,     -0.008770f,      0.042832f,      0.003164f,     -0.018447f,      0.014462f,     -0.016141f,     -0.004168f,
      0.115233f,      0.081414f,     -0.091803f,      0.017732f,     -0.088964f,      0.078298f,      0.089192f,      0.047051f,
     -0.072941f,      0.080170f,     -0.004117f,     -0.012985f,     -0.051757f,     -0.120529f,      0.007281f,      0.081240f,
     -0.020375f,      0.010221f,      0.012480f,      0.011697f,      0.059206f,     -0.126243f,     -0.051016f,     -0.063747f,
     -0.054155f,     -0.009572f,     -0.004616f,     -0.005470f,      0.088597f,      0.084980f,     -0.008073f,      0.024777f,
      0.025750f,      0.007928f,      0.001054f,     -0.010701f,      0.022036f,      0.032984f,      0.040814f,     -0.010524f,
      0.009082f,     -0.023545f,     -0.018157f,      0.069812f,      0.007967f,     -0.047285f,     -0.036098f,     -0.066253f,
      0.061258f,     -0.090665f,      0.037702f,     -0.028901f,     -0.012256f,     -0.041412f,     -0.033041f,     -0.062491f,
     -0.020972f,     -0.115124f,     -0.012276f,     -0.042308f,      0.037870f,      0.018227f,      0.080250f,     -0.034838f,
     -0.135666f,     -0.001050f,      0.035385f,     -0.065665f,      0.066790f,      0.106050f,     -0.041577f,      0.071540f,
     -0.118043f,      0.032728f,      0.033135f,      0.010140f,     -0.005524f,      0.035410f,     -0.027317f,      0.004005f,
      0.091759f,      0.005581f,      0.022147f,      0.024622f,     -0.017886f,     -0.055963f,     -0.032225f,      0.041014f,
      0.004469f,     -0.057904f,      0.000100f,      0.019187f,      0.042282f,      0.043001f,      0.034862f,      0.013203f,
     -0.023530f,     -0.007844f,      0.071653f,     -0.004614f,      0.050749f,     -0.006908f,      0.047243f,     -0.071584f,
      0.022766f,      0.010715f,      0.003282f,     -0.015055f,      0.011472f,      0.041538f,     -0.039148f,     -0.092306f,
     -0.000335f,     -0.015308f,     -0.000281f,      0.001002f,      0.020274f,      0.057674f,     -0.059818f,      0.048998f,
      0.035667f,     -0.024126f,     -0.092402f,     -0.017993f,     -0.075126f,      0.043726f,     -0.003251f,      0.017417f,
      0.052193f,     -0.001897f,     -0.054432f,     -0.059344f,      0.027554f,      0.056347f,      0.032929f,     -0.100895f,
      0.071623f,      0.000102f,      0.074491f,     -0.030299f,     -0.067206f,     -0.008719f,      0.066293f,     -0.049622f,
      0.068199f,      0.006620f,     -0.028961f,     -0.018336f,      0.016841f,      0.031348f,      0.021026f,     -0.047287f,
     -0.043049f,      0.046227f,     -0.053276f,      0.050864f,      0.016947f,      0.064317f,     -0.023468f,      0.000706f,
     -0.007875f,     -0.010540f,      0.059085f,     -0.011779f,     -0.029754f,     -0.016492f,      0.003480f,      0.076591f,
     -0.001965f,     -0.059417f,     -0.047197f,      0.061910f,     -0.037317f,      0.085654f,      0.033992f,      0.000926f,
     -0.019267f,      0.050355f,     -0.032576f,      0.029845f,     -0.000483f,     -0.018567f,      0.054996f,     -0.010575f,
      0.032452f,      0.031217f,      0.049720f,     -0.003926f,      0.019044f,      0.017874f,     -0.086174f,      0.062639f,
      0.094934f,      0.021369f,     -0.058673f,     -0.069459f,      0.042889f,      0.031520f,      0.020090f,     -0.050623f,
      0.014878f,     -0.061189f,     -0.112124f,     -0.036516f,      0.046247f,      0.029371f,      0.032394f,     -0.005332f,
      0.014202f,     -0.034182f,      0.046103f,      0.073699f,     -0.031472f,     -0.004691f,     -0.048689f,     -0.071520f,
      0.011488f,      0.001123f,     -0.037688f,      0.054702f,      0.035436f,     -0.006232f,     -0.100051f,      0.001507f,
     -0.026070f,     -0.029177f,      0.055149f,     -0.036262f,     -0.047719f,      0.096533f,     -0.086393f,      0.041262f,
     -0.082385f,     -0.045638f,      0.070191f,      0.045750f,      0.033864f,      0.064668f,      0.035954f,      0.117398f,
      0.023036f,     -0.029135f,      0.020411f,     -0.041679f,      0.011208f,      0.018968f,      0.080354f,     -0.041479f,
     -0.025587f,     -0.014915f,      0.024262f,      0.059757f,     -0.062854f,      0.020044f,      0.032499f,     -0.027706f,
     -0.029628f,     -0.008629f,     -0.056140f,      0.085270f,     -0.029278f,     -0.021152f,     -0.034481f,     -0.011419f,
      0.021460f,      0.019353f,     -0.080163f,     -0.085347f,      0.123652f,     -0.000190f,      0.026960f,     -0.066726f,
      0.023918f,      0.076690f,     -0.033741f,      0.090476f,      0.093057f,      0.026884f,     -0.001712f,     -0.078804f,
      0.044013f,      0.022454f,     -0.063358f,     -0.085859f,     -0.058683f,     -0.006634f,     -0.056666f,      0.028176f,
      0.030291f,     -0.008803f,      0.053716f,     -0.023794f,     -0.003114f,     -0.051243f,     -0.068505f,     -0.010408f,
     -0.013033f,      0.041334f,     -0.009850f,     -0.014655f,      0.005279f,     -0.028589f,     -0.070168f,      0.037600f,
     -0.025057f,      0.058396f,      0.037498f,     -0.024039f,     -0.039023f,      0.023436f,      0.006259f,     -0.008205f,
     -0.081318f,      0.031801f,     -0.076791f,      0.000134f,      0.073607f,     -0.016260f,     -0.062553f,      0.035523f,
     -0.044093f,      0.019404f,     -0.014247f,      0.006049f,     -0.061811f,      0.008051f,      0.044137f,      0.000716f,
     -0.075450f,     -0.032865f,      0.018160f,      0.042226f,     -0.005488f,     -0.011826f,     -0.013533f,     -0.107539f,
      0.068647f,      0.059791f,      0.034586f,      0.003796f,     -0.008564f,     -0.014770f,     -0.049380f,      0.108276f,
      0.002408f,      0.055089f,      0.011977f,      0.018547f,     -0.026529f,      0.065717f,     -0.060692f,     -0.067798f,
      0.043130f,      0.051972f,      0.011644f,     -0.010169f,     -0.016025f,     -0.162325f,      0.089871f,      0.045249f,
      0.005597f,      0.108378f,      0.025640f,     -0.027164f,      0.065794f,     -0.048739f,      0.027776f,      0.008686f,
     -0.003510f,     -0.017586f,      0.012398f,     -0.006966f,     -0.019277f,     -0.035965f,      0.040875f,     -0.014301f,
     -0.002517f,      0.037879f,      0.041674f,      0.071386f,      0.032705f,     -0.063924f,      0.009329f,     -0.020100f,
     -0.009319f,      0.017581f,      0.042304f,     -0.097541f,      0.046473f,      0.081056f,      0.000789f,      0.095106f,
     -0.042014f,      0.017864f,      0.029322f,     -0.090395f,     -0.010008f,     -0.080407f,     -0.038985f,      0.003785f,
      0.010855f,      0.052889f,     -0.000556f,     -0.076024f,     -0.066966f,      0.023610f,     -0.103020f,     -0.075247f,
      0.024640f,     -0.014257f,      0.077544f,      0.014194f,      0.065612f,      0.018553f,     -0.031701f,     -0.022024f,
     -0.063202f,     -0.096074f,     -0.035016f,      0.016623f,     -0.006610f,      0.097415f,     -0.012720f,     -0.020716f,
     -0.023929f,     -0.186907f,      0.065354f,     -0.032203f,     -0.019569f,     -0.029222f,      0.042276f,     -0.040857f,
      0.025792f,     -0.012736f,      0.063286f,      0.046749f,     -0.092328f,      0.113861f,     -0.022312f,      0.028140f,
     -0.009012f,      0.034177f,     -0.008278f,     -0.035959f,     -0.041762f,     -0.001886f,     -0.032950f,     -0.078697f,
      0.010576f,     -0.000523f,     -0.036852f,     -0.009581f,      0.030019f,     -0.044034f,      0.052303f,     -0.033914f,
     -0.041913f,      0.012926f,     -0.031202f,     -0.033286f,     -0.018031f,     -0.040720f,     -0.074137f,     -0.096100f,
      0.048928f,     -0.013009f,      0.032627f,      0.054182f,     -0.050214f,     -0.007702f,     -0.051673f,      0.086723f,
      0.056882f,      0.007478f,      0.039782f,      0.060202f,     -0.003858f,     -0.029673f,      0.047313f,      0.018324f,
     -0.056808f,     -0.010685f,      0.060260f,     -0.040216f,     -0.058791f,     -0.053184f,     -0.134586f,      0.045217f,
     -0.001322f,     -0.026216f,      0.053376f,      0.036285f,     -0.080167f,      0.050613f,     -0.046687f,     -0.104203f,
      0.038460f,      0.006911f,     -0.118821f,     -0.021786f,      0.017602f,      0.003130f,     -0.039178f,      0.014471f,
      0.025751f,      0.039778f,     -0.015972f,      0.031085f,      0.007811f,     -0.016319f,      0.050252f,     -0.007418f,
      0.054573f,      0.036943f,     -0.040028f,      0.039031f,     -0.060438f,      0.088758f,      0.108907f,     -0.077126f,
      0.012946f,     -0.071796f,      0.072165f,      0.050717f,     -0.075759f,      0.059314f,     -0.029405f,     -0.053634f,
      0.000373f,     -0.033181f,     -0.029383f,     -0.047871f,     -0.028032f,      0.029295f,      0.048180f,     -0.035652f,
     -0.031976f,      0.016697f,     -0.040178f,      0.024587f,     -0.033409f,     -0.009960f,      0.010491f,      0.021997f,
      0.013222f,      0.080422f,      0.041009f,      0.044128f,     -0.034774f,      0.014960f,     -0.001325f,      0.076494f,
      0.009092f,     -0.023912f,     -0.005724f,     -0.016018f,     -0.110874f,     -0.055448f,     -0.030047f,      0.018490f,
     -0.030704f,     -0.007546f,     -0.057062f,      0.032765f,     -0.002703f,      0.018798f,      0.002032f,      0.070481f,
      0.053605f,      0.048377f,      0.043295f,     -0.020345f,      0.040175f,     -0.080100f,     -0.015114f,      0.074865f,
      0.041100f,      0.034495f,     -0.047604f,     -0.026495f,     -0.001649f,      0.027744f,     -0.010049f,     -0.119119f,
     -0.063391f,      0.053423f,     -0.032788f,      0.012903f,      0.065187f,      0.038633f,      0.043519f,      0.020141f,
     -0.087307f,      0.002237f,      0.032551f,      0.026683f,     -0.031865f,     -0.069971f,     -0.077207f,     -0.014148f,
     -0.026205f,     -0.032793f,     -0.019994f,      0.009401f,     -0.015002f,      0.094585f,      0.073029f,     -0.103860f,
      0.044227f,     -0.052032f,     -0.024872f,     -0.022116f,      0.014821f,     -0.000237f,      0.023805f,     -0.028401f,
     -0.079145f,      0.022513f,     -0.025800f,      0.027706f,     -0.040553f,      0.087557f,     -0.026100f,      0.028968f,
     -0.016911f,      0.000304f,     -0.048955f,      0.011898f,     -0.022686f,     -0.061763f,     -0.026043f,     -0.072960f,
      0.023067f,     -0.019498f,      0.066204f,      0.028247f,      0.047695f,      0.098976f,     -0.067702f,      0.024975f,
      0.070061f,     -0.074462f,     -0.013269f,     -0.026547f,      0.085184f,     -0.071148f,      0.017274f,      0.050059f,
      0.107817f,     -0.026441f,     -0.055033f,     -0.022785f,     -0.038162f,      0.021008f,      0.010664f,      0.006572f,
      0.091033f,      0.054573f,      0.034734f,      0.041569f,      0.050165f,     -0.056317f,      0.036007f,      0.033586f,
     -0.026241f,      0.055223f,      0.109230f,      0.016993f,     -0.065641f,     -0.010025f,      0.043176f,      0.000270f,
      0.018954f,     -0.037511f,     -0.052800f,     -0.035213f,      0.092636f,      0.004590f,     -0.028710f,     -0.046481f,
      0.023145f,      0.044345f,     -0.001073f,     -0.001232f,     -0.016507f,     -0.008249f,      0.015064f,     -0.131565f,
     -0.002900f,     -0.128658f,     -0.108583f,     -0.004605f,     -0.021123f,     -0.027712f,      0.069681f,      0.012735f,
     -0.033850f,     -0.020544f,     -0.024213f,     -0.026938f,     -0.079097f,      0.021626f,      0.025508f,      0.074386f,
     -0.034980f,     -0.019602f,     -0.021680f,     -0.010501f,     -0.102540f,      0.002175f,     -0.019703f,      0.072873f,
      0.072017f,      0.034775f,     -0.040562f,      0.047645f,     -0.120087f,     -0.000069f,      0.030562f,      0.031914f,
     -0.019100f,     -0.047101f,     -0.035484f,      0.017023f,     -0.101077f,     -0.086459f,     -0.023311f,     -0.052414f,
      0.017905f,      0.044588f,     -0.014282f,      0.059418f,      0.025648f,      0.043251f,     -0.060394f,     -0.109393f,
     -0.034942f,     -0.084799f,      0.078527f,     -0.000438f,     -0.027537f,      0.016853f,      0.027283f,      0.071256f,
      0.068253f,      0.078350f,      0.058736f,      0.009030f,     -0.010060f,      0.080660f,     -0.001966f,     -0.045141f,
     -0.003266f,      0.021575f,      0.034628f,      0.043489f,      0.062868f,      0.012400f,     -0.056588f,     -0.112949f,
      0.042991f,      0.004819f,     -0.070545f,      0.003741f,      0.048584f,      0.083261f,      0.059216f,     -0.021780f,
     -0.036408f,     -0.023654f,     -0.013185f,      0.062990f,     -0.036394f,      0.051167f,      0.022153f,      0.040011f,
      0.075771f,     -0.019160f,      0.033231f,     -0.016116f,      0.137774f,     -0.043029f,      0.003996f,     -0.024378f,
      0.028114f,      0.013748f,     -0.018133f,     -0.094419f,      0.008666f,     -0.068231f,     -0.022843f,     -0.023313f,
     -0.029160f,      0.031168f,      0.054948f,     -0.024492f,     -0.015462f,      0.009144f,     -0.002839f,     -0.047593f,
     -0.019604f,      0.003845f,     -0.015770f,     -0.073839f,     -0.007974f,     -0.003174f,      0.028779f,      0.021093f,
      0.051683f,      0.081948f,      0.088290f,      0.061318f,     -0.040020f,     -0.026299f,     -0.060614f,      0.023915f,
     -0.030842f,     -0.029016f,      0.060904f,      0.109699f,      0.009142f,      0.000822f,      0.089715f,     -0.075549f,
     -0.082342f,     -0.010624f,      0.035028f,     -0.062844f,      0.053263f,     -0.028032f,     -0.013869f,     -0.000391f,
     -0.097620f,      0.007711f,      0.035871f,     -0.087945f,     -0.106013f,      0.036754f,      0.052405f,      0.025270f,
      0.055832f,      0.016255f,     -0.015004f,      0.003573f,     -0.059842f,      0.035340f,     -0.066787f,     -0.027628f,
      0.030891f,     -0.052684f,     -0.006201f,      0.022702f,     -0.081285f,     -0.017583f,     -0.043273f,      0.037617f,
     -0.026814f,     -0.070033f,      0.143036f,     -0.043024f,     -0.065457f,     -0.049323f,     -0.014378f,     -0.010250f,
     -0.040477f,     -0.104579f,      0.102697f,     -0.011606f,     -0.051369f,      0.051933f,     -0.101827f,     -0.031554f,
     -0.016187f,      0.005658f,      0.029310f,      0.026632f,      0.027318f,      0.011138f,     -0.015998f,     -0.024743f,
      0.117511f,      0.040067f,     -0.003065f,     -0.051648f,     -0.153153f,      0.028137f,      0.082973f,     -0.005049f,
      0.024785f,     -0.054318f,      0.000284f,      0.027758f,     -0.057667f,     -0.021997f,      0.010856f,      0.020752f,
      0.054761f,      0.011378f,      0.027416f,     -0.023438f,     -0.062274f,     -0.034052f,     -0.001572f,     -0.041420f,
      0.063908f,      0.098270f,      0.033264f,      0.044003f,     -0.081734f,     -0.050543f,      0.038643f,      0.056773f,
      0.010297f,      0.050163f,      0.047844f,      0.047755f,      0.054720f,     -0.036129f,      0.056799f,     -0.021216f,
      0.157595f,     -0.047326f,     -0.022240f,      0.051269f,     -0.054190f,     -0.001796f,      0.078885f,      0.041850f,
      0.020013f,     -0.058040f,     -0.000454f,     -0.064040f,     -0.035793f,      0.038975f,     -0.045854f,     -0.049471f,
      0.043268f,     -0.030292f,      0.057605f,     -0.036984f,      0.023186f,     -0.071022f,      0.098929f,      0.038482f,
      0.012630f,     -0.055060f,     -0.052829f,     -0.073509f,     -0.007858f,     -0.067544f,      0.060583f,      0.023167f,
     -0.009579f,     -0.040095f,     -0.028206f,      0.010902f,     -0.012304f,     -0.015525f,      0.043018f,      0.042524f,
      0.006200f,     -0.036950f,      0.006265f,     -0.024426f,     -0.013780f,      0.016076f,      0.025125f,      0.015865f,
     -0.054099f,      0.036861f,     -0.016314f,     -0.098630f,     -0.015901f,      0.087594f,      0.008475f,      0.047874f,
      0.028806f,      0.069977f,     -0.005198f,      0.043406f,     -0.038239f,      0.010374f,      0.090461f,     -0.018809f,
     -0.029006f,     -0.027811f,      0.029874f,     -0.010192f,      0.018056f,     -0.050811f,     -0.001301f,     -0.052035f,
     -0.027600f,      0.015226f,      0.013864f,     -0.075216f,     -0.026263f,     -0.043170f,      0.072163f,      0.029575f,
      0.057541f,      0.017064f,     -0.003418f,     -0.022794f,     -0.045499f,     -0.099088f,     -0.080980f,     -0.054819f,
     -0.011117f,      0.026357f,      0.011159f,     -0.042258f,     -0.024783f,      0.040344f,     -0.019718f,      0.026435f,
      0.048430f,     -0.069553f,      0.055512f,     -0.099743f,      0.022095f,     -0.109572f,      0.046594f,     -0.060289f,
      0.019690f,     -0.023051f,      0.071679f,      0.091082f,      0.042677f,     -0.043329f,     -0.011771f,      0.026626f,
      0.096152f,     -0.025347f,     -0.074816f,     -0.009902f,      0.039436f,      0.045983f,     -0.011061f,      0.012530f,
     -0.018265f,      0.043811f,     -0.072185f,      0.142882f,     -0.021757f,      0.055379f,      0.008602f,      0.022772f,
      0.075942f,     -0.014552f,     -0.019854f,      0.008596f,     -0.027695f,      0.049316f,      0.020876f,     -0.008368f,
     -0.059849f,     -0.014696f,      0.009808f,     -0.039879f,     -0.003906f,     -0.064981f,      0.003050f,     -0.050177f,
      0.071627f,      0.020768f,      0.031843f,     -0.018102f,      0.055224f,      0.044564f,     -0.077861f,     -0.038818f,
     -0.000057f,      0.079660f,      0.046153f,      0.052051f,      0.017407f,     -0.072737f,      0.135145f,     -0.080091f,
      0.008931f,     -0.026722f,      0.016177f,      0.018688f,     -0.074964f,     -0.021825f,     -0.077661f,      0.016979f,
      0.091634f,     -0.006294f,     -0.011840f,      0.066748f,      0.004394f,      0.039275f,     -0.030837f,     -0.026839f,
      0.002138f,     -0.003180f,      0.005469f,     -0.005480f,      0.071692f,     -0.032033f,     -0.025015f,      0.038201f,
     -0.043983f,     -0.055777f,      0.011646f,      0.044603f,      0.023305f,     -0.012728f,     -0.029745f,     -0.005456f,
      0.065042f,     -0.005250f,      0.009114f,      0.052163f,     -0.002529f,     -0.067234f,      0.016353f,     -0.058217f,
      0.022901f,      0.034306f,      0.023283f,      0.046441f,      0.055279f,      0.021457f,     -0.024694f,      0.067666f,
      0.014582f,      0.068126f,      0.048955f,     -0.002406f,     -0.069557f,      0.013717f,     -0.051111f,     -0.029890f,
      0.069511f,      0.003123f,      0.044007f,     -0.005406f,     -0.072590f,      0.055377f,     -0.021171f,      0.106746f,
     -0.065750f,      0.122098f,      0.063043f,     -0.056660f,     -0.039406f,     -0.011649f,     -0.030354f,      0.051316f,
      0.046392f,      0.043530f,     -0.091102f,     -0.002243f,      0.007768f,     -0.010584f,     -0.006579f,      0.004637f,
      0.020197f,      0.041127f,     -0.018775f,     -0.020959f,     -0.011121f,     -0.054956f,     -0.024818f,      0.051886f,
      0.014613f,     -0.007036f,     -0.030450f,      0.001580f,      0.037638f,     -0.057289f,     -0.011628f,      0.020972f,
      0.104256f,      0.075656f,      0.042611f,     -0.067621f,     -0.045703f,     -0.037282f,      0.016686f,     -0.031748f,
     -0.071768f,      0.006483f,      0.010136f,     -0.014669f,      0.010189f,     -0.052445f,      0.072767f,     -0.057640f,
      0.066611f,     -0.039281f,      0.010632f,     -0.082877f,     -0.087641f,      0.035871f,      0.046605f,     -0.042906f,
     -0.010679f,     -0.087662f,     -0.004174f,      0.075263f,     -0.029590f,      0.032340f,      0.064244f,     -0.047085f,
      0.026011f,     -0.013112f,     -0.006630f,      0.048473f,      0.031568f,      0.068741f,     -0.108204f,     -0.055013f,
     -0.025434f,      0.123055f,      0.046147f,      0.054752f,     -0.055188f,      0.072223f,      0.061985f,     -0.010163f,
     -0.109200f,      0.157762f,      0.012812f,     -0.046082f,     -0.066000f,      0.004242f,     -0.001693f,     -0.027713f,
      0.009873f,     -0.002506f,     -0.013259f,     -0.064460f,      0.002902f,     -0.047232f,      0.030609f,      0.028123f,
     -0.009208f,      0.001394f,      0.019197f,      0.012448f,     -0.004297f,     -0.018814f,      0.003564f,      0.017862f,
     -0.012707f,      0.077508f,     -0.025380f,      0.032903f,      0.061198f,      0.047757f,      0.031177f,     -0.024601f,
      0.036268f,     -0.033852f,     -0.003053f,     -0.039824f,      0.076743f,     -0.010861f,     -0.098527f,      0.093221f,
     -0.005541f,      0.008164f,     -0.006793f,     -0.005394f,      0.078418f,      0.067444f,     -0.020528f,     -0.056638f,
      0.051051f,     -0.043494f,      0.062266f,     -0.007764f,     -0.020785f,      0.137198f,      0.032782f,      0.013510f,
      0.033517f,     -0.023739f,     -0.105569f,     -0.007583f,      0.068601f,     -0.016853f,     -0.056426f,      0.010092f,
      0.030896f,      0.057882f,      0.096349f,      0.051182f,     -0.050594f,     -0.138623f,      0.030972f,     -0.017213f,
     -0.028503f,      0.038167f,     -0.016056f,     -0.017447f,     -0.064643f,      0.047181f,     -0.127710f,     -0.036233f,
      0.041173f,      0.014943f,      0.021810f,     -0.009680f,      0.027192f,     -0.010345f,     -0.030440f,     -0.032769f,
     -0.013721f,     -0.002357f,      0.004654f,      0.088419f,     -0.073498f,     -0.024107f,      0.052029f,     -0.011201f,
      0.036673f,     -0.050414f,     -0.003930f,     -0.022558f,     -0.012738f,      0.034137f,     -0.067577f,      0.055153f,
      0.036560f,     -0.030471f,      0.000590f,      0.043934f,     -0.066048f,     -0.054681f,      0.047396f,      0.073970f,
     -0.088483f,      0.024829f,     -0.022135f,      0.043033f,     -0.041663f,     -0.029215f,     -0.034929f,     -0.050534f,
      0.009823f,     -0.023908f,     -0.004065f,     -0.019977f,      0.015896f,     -0.008114f,      0.031230f,      0.018584f,
      0.039417f,      0.036756f,      0.032243f,      0.061078f,      0.071099f,      0.043042f,      0.040061f,      0.033144f,
      0.016349f,     -0.058044f,     -0.019312f,     -0.040803f,     -0.035459f,     -0.039017f,      0.068506f,     -0.029994f,
      0.052309f,      0.042295f,     -0.005839f,     -0.060194f,      0.031039f,      0.069594f,      0.020505f,     -0.029985f,
      0.007033f,     -0.033449f,     -0.036880f,     -0.008710f,     -0.021171f,      0.024500f,     -0.020517f,      0.064812f,
      0.025783f,      0.079626f,     -0.005888f,     -0.084932f,     -0.075248f,      0.006868f,     -0.052765f,     -0.028711f,
     -0.064577f,      0.012705f,      0.003575f,      0.008357f,     -0.044950f,      0.035558f,      0.036077f,      0.041762f,
      0.059416f,      0.024131f,      0.054059f,     -0.036281f,      0.003510f,      0.024357f,     -0.048931f,      0.076037f,
      0.014185f,      0.066221f,     -0.007721f,      0.018932f,     -0.103495f,      0.076870f,     -0.008306f,      0.018840f,
     -0.065939f,      0.018266f,      0.025319f,      0.073350f,      0.070117f,     -0.017286f,      0.044338f,     -0.035963f,
      0.093307f,      0.063983f,      0.028881f,     -0.003334f,     -0.044785f,      0.014834f,     -0.012426f,      0.096851f,
      0.006770f,     -0.007701f,      0.044296f,      0.030701f,     -0.075906f,      0.034652f,     -0.053961f,     -0.010054f,
      0.058093f,      0.008946f,      0.081571f,     -0.008033f,      0.005280f,      0.030133f,      0.061249f,     -0.029514f,
      0.061406f,      0.004327f,      0.102312f,     -0.057912f,      0.029671f,      0.033112f,      0.032766f,      0.005970f,
     -0.021089f,      0.068443f,     -0.030583f,      0.016144f,     -0.109623f,     -0.032743f,      0.021358f,     -0.056472f,
     -0.012271f,     -0.001798f,      0.007162f,     -0.080998f,     -0.071291f,      0.050566f,     -0.070189f,     -0.009048f,
     -0.060901f,     -0.050883f,      0.006207f,      0.050451f,      0.008543f,      0.032169f,      0.123685f,     -0.015963f,
     -0.034054f,     -0.061583f,     -0.047658f,      0.032203f,     -0.116598f,     -0.143514f,     -0.002773f,      0.043235f,
      0.021211f,      0.036895f,      0.015279f,     -0.088277f,     -0.036783f,     -0.051662f,     -0.013918f,     -0.021167f,
     -0.115595f,     -0.003682f,     -0.096062f,      0.036615f,     -0.100890f,      0.046316f,      0.003845f,      0.003739f,
     -0.075007f,      0.036695f,     -0.014142f,      0.064609f,     -0.041393f,      0.068383f,     -0.073940f,     -0.069484f,
      0.009389f,      0.105870f,     -0.012308f,     -0.066661f,     -0.021376f,      0.012934f,     -0.019315f,      0.117501f,
     -0.031920f,      0.027375f,     -0.048264f,     -0.000594f,      0.009025f,     -0.032398f,      0.042023f,     -0.049927f,
      0.102051f,     -0.033366f,      0.024067f,      0.033052f,      0.006566f,     -0.066611f,     -0.068012f,     -0.025055f,
      0.094284f,     -0.102825f,      0.058861f,      0.018131f,      0.093745f,      0.062639f,     -0.127979f,      0.045987f,
     -0.036144f,     -0.039582f,      0.046831f,      0.039984f,      0.045420f,      0.035186f,      0.037041f,     -0.060036f,
     -0.011481f,     -0.191000f,     -0.009940f,     -0.045539f,     -0.052420f,     -0.023394f,      0.021047f,     -0.043085f,
      0.050993f,      0.108791f,     -0.017492f,     -0.036595f,      0.012518f,      0.068434f,     -0.077445f,     -0.005249f,
     -0.122178f,     -0.043942f,      0.039968f,      0.063351f,     -0.006591f,     -0.027934f,      0.000663f,     -0.061842f,
     -0.038621f,     -0.071063f,      0.055127f,     -0.003128f,     -0.035291f,     -0.020641f,     -0.021477f,      0.023632f,
      0.002924f,     -0.030943f,     -0.041614f,     -0.003027f,      0.043591f,     -0.004662f,     -0.009376f,     -0.032600f,
      0.006113f,      0.061448f,      0.063937f,     -0.022857f,     -0.042924f,     -0.034596f,     -0.005048f,     -0.084938f,
      0.005611f,     -0.092299f,      0.069944f,     -0.012966f,     -0.023529f,      0.019294f,     -0.006353f,      0.019321f,
     -0.017456f,     -0.016940f,      0.008523f,      0.123964f,     -0.047719f,      0.000539f,     -0.008763f,     -0.038122f,
      0.028189f,      0.062777f,      0.013565f,      0.045933f,     -0.055165f,     -0.012480f,     -0.113704f,      0.091921f,
      0.097074f,      0.012061f,     -0.081849f,      0.010066f,     -0.007312f,     -0.142918f,      0.003410f,     -0.136018f,
      0.032868f,     -0.056807f,      0.006787f,     -0.036579f,     -0.056130f,     -0.016083f,     -0.040973f,      0.030542f,
      0.050512f,     -0.010803f,      0.025953f,      0.028860f,     -0.096754f,      0.043566f,     -0.039121f,      0.048600f,
     -0.021722f,     -0.052081f,      0.040810f,     -0.018225f,      0.028722f,      0.010389f,     -0.076108f,     -0.124433f,
      0.074866f,     -0.042173f,     -0.045238f,      0.031090f,     -0.025082f,      0.024391f,     -0.013928f,     -0.015536f,
     -0.018501f,     -0.039261f,     -0.040717f,     -0.029729f,      0.063488f,     -0.076671f,     -0.035244f,     -0.069160f,
      0.014657f,      0.037239f,      0.009981f,     -0.078219f,      0.035321f,      0.019892f,     -0.052521f,      0.021547f,
     -0.059236f,      0.037342f,     -0.035743f,      0.063216f,     -0.077329f,     -0.030225f,      0.003101f,      0.004183f,
     -0.004739f,     -0.030017f,     -0.027924f,     -0.080615f,      0.066908f,     -0.052925f,     -0.034049f,     -0.009666f,
      0.027305f,     -0.070413f,      0.045119f,      0.053100f,      0.017013f,     -0.033977f,      0.025593f,      0.030515f,
      0.041569f,     -0.050127f,      0.040260f,      0.035143f,     -0.023383f,     -0.064877f,     -0.000243f,     -0.056667f,
      0.009356f,     -0.003931f,     -0.028234f,      0.016343f,     -0.018531f,     -0.003297f,      0.040219f,      0.047758f,
      0.020985f,     -0.033859f,     -0.069898f,      0.050137f,      0.016100f,     -0.030594f,     -0.039100f,      0.013033f,
      0.073273f,      0.049467f,     -0.046947f,     -0.098421f,     -0.007698f,      0.079950f,      0.016172f,      0.022428f,
     -0.085373f,      0.032993f,      0.112891f,     -0.031169f,     -0.014937f,     -0.002088f,     -0.033003f,      0.027604f,
     -0.032835f,     -0.053986f,     -0.038162f,     -0.030785f,      0.104194f,      0.094737f,     -0.000436f,      0.113810f,
     -0.009293f,     -0.014644f,      0.006035f,      0.016507f,     -0.060366f,     -0.058696f,      0.049928f,      0.012759f,
     -0.029269f,     -0.024803f,      0.129463f,      0.031686f,      0.030179f,      0.095367f,      0.041166f,      0.028596f,
      0.021410f,      0.015039f,     -0.073187f,      0.028895f,      0.009710f,      0.071974f,     -0.039583f,      0.001852f,
      0.078267f,     -0.083020f,      0.008302f,      0.052639f,     -0.025534f,     -0.007692f,      0.011003f,     -0.097211f,
     -0.030606f,      0.029567f,      0.007362f,     -0.004762f,      0.006441f,      0.029918f,      0.029743f,      0.030850f,
      0.167271f,      0.046235f,      0.036007f,     -0.009453f,      0.023395f,     -0.010865f,      0.018179f,     -0.025220f,
     -0.014593f,     -0.031687f,     -0.071288f,      0.022484f,     -0.044800f,     -0.082300f,     -0.077727f,      0.003220f,
      0.001708f,      0.056239f,     -0.065284f,      0.013174f,     -0.099812f,     -0.004935f,      0.075418f,     -0.015900f,
      0.056288f,     -0.068335f,     -0.056462f,      0.003741f,      0.013650f,     -0.012659f,     -0.082416f,      0.025937f,
      0.015965f,      0.105105f,      0.032721f,     -0.021741f,      0.066887f,     -0.036996f,     -0.000951f,      0.006065f,
     -0.051658f,      0.030928f,     -0.040042f,      0.011936f,      0.039766f,      0.095161f,     -0.000587f,     -0.004611f,
      0.210510f,     -0.066438f,      0.002707f,      0.011051f,      0.008728f,      0.014995f,     -0.025868f,      0.064813f,
      0.017247f,      0.013506f,     -0.056057f,      0.001601f,     -0.038613f,      0.034581f,     -0.029818f,     -0.063332f,
      0.074160f,      0.062681f,     -0.023324f,     -0.016884f,     -0.062961f,     -0.057378f,      0.010535f,     -0.049502f,
      0.004085f,     -0.079456f,      0.037048f,      0.012595f,      0.054719f,     -0.001898f,     -0.075780f,     -0.063692f,
     -0.083011f,     -0.023717f,      0.026300f,     -0.028104f,     -0.037130f,      0.037181f,      0.042482f,      0.103799f,
      0.044752f,      0.043194f,      0.024411f,     -0.005656f,     -0.083888f,     -0.080825f,     -0.093015f,     -0.017060f,
     -0.001562f,     -0.076005f,      0.011846f,     -0.101144f,     -0.012612f,     -0.034384f,     -0.022809f,      0.049239f,
      0.058971f,      0.035932f,     -0.097022f,     -0.037586f,     -0.115857f,      0.001863f,     -0.003445f,     -0.012971f,
      0.032562f,     -0.065165f,     -0.038528f,      0.020427f,     -0.036687f,      0.062172f,      0.009622f,      0.020446f,
     -0.052572f,     -0.076655f,     -0.149241f,      0.031364f,     -0.022806f,      0.024730f,      0.018300f,     -0.035753f,
      0.007813f,     -0.010523f,      0.095241f,      0.016767f,     -0.033948f,      0.007555f,      0.007596f,      0.065490f,
     -0.049398f,     -0.045799f,     -0.040346f,     -0.013340f,      0.032587f,     -0.082744f,      0.014256f,     -0.049130f,
     -0.034797f,      0.109794f,      0.007662f,     -0.014810f,     -0.015002f,     -0.020536f,      0.049295f,      0.034680f,
     -0.020604f,     -0.015026f,      0.007866f,     -0.002681f,     -0.049058f,     -0.029140f,     -0.055716f,     -0.045008f,
      0.018514f,      0.008189f,      0.033128f,      0.029463f,     -0.020648f,     -0.015896f,     -0.013042f,     -0.033716f,
     -0.041580f,     -0.050994f,     -0.071169f,      0.055771f,      0.003521f,     -0.040915f,     -0.041959f,     -0.051387f,
      0.001127f,     -0.046066f,     -0.011367f,      0.001322f,      0.003142f,      0.113733f,     -0.025539f,     -0.047129f,
      0.015434f,      0.008332f,     -0.060426f,     -0.047382f,      0.070477f,      0.027665f,     -0.055981f,     -0.031106f,
      0.057508f,     -0.009427f,     -0.060006f,      0.024277f,      0.001036f,      0.006400f,      0.043730f,     -0.041618f,
     -0.027747f,     -0.025285f,      0.021594f,      0.023655f,     -0.016312f,     -0.043442f,     -0.061200f,     -0.014939f,
      0.011362f,     -0.029251f,      0.068392f,      0.016511f,      0.088050f,      0.021270f,     -0.092492f,      0.083239f,
      0.022345f,      0.154587f,      0.010506f,      0.049906f,     -0.037849f,     -0.023086f,     -0.048516f,      0.067560f,
      0.082653f,     -0.045682f,     -0.081369f,     -0.010635f,      0.054472f,     -0.001565f,      0.009539f,      0.060443f,
      0.014179f,      0.022234f,     -0.051419f,      0.057302f,      0.106438f,     -0.010796f,      0.063125f,     -0.057824f,
      0.103845f,      0.002645f,      0.065473f,      0.017781f,     -0.087440f,     -0.022458f,     -0.036701f,     -0.022979f,
      0.010489f,      0.005721f,      0.005634f,     -0.062743f,      0.012869f,      0.047645f,      0.030679f,     -0.036638f,
      0.052516f,     -0.027877f,      0.009709f,     -0.022536f,     -0.004383f,     -0.042702f,     -0.036241f,      0.009842f,
      0.042232f,     -0.070125f,     -0.005075f,     -0.023257f,     -0.028364f,     -0.018626f,     -0.005896f,      0.062535f,
     -0.114465f,      0.002932f,     -0.041213f,     -0.042508f,      0.075174f,     -0.039324f,     -0.013824f,     -0.017434f,
      0.025432f,      0.061611f,      0.028458f,     -0.022716f,      0.029364f,     -0.017152f,     -0.029279f,      0.031121f,
      0.032971f,      0.072284f,      0.048680f,     -0.039258f,      0.009830f,     -0.034973f,     -0.025750f,      0.007736f,
     -0.005878f,     -0.024287f,      0.051453f,      0.139213f,      0.030230f,     -0.053778f,     -0.032820f,      0.049578f,
     -0.029305f,     -0.012312f,      0.040224f,     -0.020735f,      0.062990f,      0.018370f,     -0.025423f,      0.018611f,
     -0.017965f,     -0.029072f,     -0.017570f,     -0.023272f,      0.002688f,      0.025948f,     -0.013622f,      0.022102f,
     -0.027803f,      0.027854f,     -0.011254f,      0.068674f,      0.041101f,      0.096623f,      0.026523f,     -0.006925f,
      0.013236f,      0.006593f,     -0.025985f,      0.001374f,     -0.018944f,     -0.039616f,     -0.052545f,     -0.044099f,
      0.064139f,      0.014534f,      0.038300f,     -0.044006f,      0.003018f,     -0.013545f,     -0.059212f,      0.103504f,
     -0.032047f,      0.124304f,     -0.041515f,     -0.006545f,     -0.054348f,     -0.024012f,     -0.002032f,      0.042517f,
      0.018959f,     -0.021092f,     -0.053135f,     -0.003122f,     -0.015627f,      0.019859f,      0.021806f,     -0.007195f,
      0.016678f,     -0.014481f,      0.012805f,      0.123537f,     -0.015838f,     -0.044916f,      0.134657f,      0.016761f,
     -0.099736f,      0.015747f,     -0.078321f,      0.058902f,      0.027989f,     -0.013735f,     -0.032025f,      0.014610f,
      0.013756f,      0.040775f,      0.003095f,      0.039512f,      0.028133f,     -0.042780f,     -0.102231f,     -0.019561f,
      0.003124f,      0.038876f,     -0.013553f,      0.111619f,      0.025501f,      0.045754f,     -0.053949f,      0.008244f,
      0.037383f,      0.028441f,     -0.033558f,      0.008125f,      0.004912f,      0.073876f,     -0.054547f,      0.074153f,
     -0.060243f,     -0.055545f,     -0.034689f,      0.026708f,     -0.004644f,     -0.024968f,      0.023542f,     -0.021924f,
     -0.057161f,     -0.069001f,     -0.080509f,      0.032003f,     -0.084235f,     -0.069615f,     -0.050468f,     -0.085024f,
     -0.000929f,     -0.052432f,      0.109790f,      0.007537f,     -0.039086f,      0.009901f,      0.008659f,      0.069811f,
     -0.061729f,     -0.019295f,      0.073562f,     -0.010959f,      0.060928f,     -0.033990f,      0.000754f,     -0.024430f,
     -0.038167f,      0.049948f,      0.063230f,     -0.082432f,     -0.008430f,     -0.045784f,     -0.025564f,     -0.005776f,
     -0.045663f,      0.003298f,      0.050990f,     -0.035516f,     -0.011749f,      0.038122f,     -0.057421f,     -0.061180f,
      0.016879f,     -0.017288f,      0.020001f,      0.018300f,     -0.000772f,      0.055515f,     -0.005681f,      0.079831f,
     -0.008868f,      0.039059f,      0.100151f,      0.079133f,     -0.038444f,      0.027364f,     -0.100666f,      0.063195f,
      0.030283f,     -0.013883f,     -0.018395f,     -0.009104f,      0.021242f,     -0.018080f,      0.046811f,      0.045902f,
     -0.006224f,      0.066845f,     -0.035460f,      0.100055f,      0.025320f,     -0.015867f,      0.038205f,     -0.040313f,
     -0.001262f,     -0.114871f,     -0.028205f,     -0.084716f,      0.038203f,     -0.020737f,     -0.031885f,      0.073492f,
     -0.071232f,      0.015601f,     -0.005664f,      0.032038f,     -0.013012f,      0.025500f,     -0.074645f,      0.047608f,
     -0.053432f,      0.018913f,      0.059717f,     -0.009841f,     -0.023550f,     -0.082920f,      0.004655f,      0.053605f,
     -0.062218f,     -0.016997f,     -0.019301f,     -0.092758f,      0.010816f,      0.060715f,      0.021112f,      0.059249f,
     -0.008045f,     -0.003968f,     -0.011258f,      0.002697f,      0.065789f,     -0.022203f,     -0.001302f,     -0.039746f,
      0.000183f,      0.001458f,      0.041553f,     -0.088023f,     -0.002943f,      0.040010f,     -0.046316f,      0.019204f,
     -0.040793f,      0.000549f,     -0.000021f,      0.000745f,     -0.036635f,     -0.091224f,     -0.017306f,      0.044003f,
      0.034096f,     -0.036809f,     -0.007010f,     -0.005255f,     -0.031733f,     -0.085441f,      0.020088f,      0.093721f,
      0.054190f,      0.036645f,     -0.084037f,     -0.032426f,      0.056234f,      0.008551f,      0.064263f,      0.007271f,
     -0.019253f,      0.039766f,     -0.071316f,      0.001389f,     -0.011856f,      0.014641f,     -0.034620f,      0.032532f,
     -0.021556f,     -0.034388f,     -0.031191f,      0.010635f,      0.044382f,      0.037446f,      0.031059f,     -0.006139f,
     -0.007436f,      0.022615f,      0.065004f,     -0.028444f,      0.013613f,     -0.055606f,      0.055612f,     -0.037107f,
     -0.049617f,      0.030852f,      0.005662f,     -0.028395f,      0.016237f,     -0.097149f,      0.067185f,      0.056567f,
      0.029803f,      0.013016f,     -0.013887f,      0.016438f,     -0.068218f,      0.027022f,     -0.046296f,     -0.046197f,
     -0.039733f,     -0.040088f,     -0.061343f,     -0.006996f,      0.028381f,      0.071620f,     -0.101565f,      0.050495f,
     -0.031080f,      0.048812f,     -0.007456f,      0.058248f,     -0.005561f,      0.014531f,     -0.005564f,     -0.032447f,
      0.120996f,      0.008061f,      0.021729f,     -0.021190f,      0.020806f,      0.038561f,     -0.044641f,      0.024673f,
      0.081966f,      0.054344f,     -0.069092f,      0.086388f,     -0.040504f,     -0.014809f,      0.051583f,      0.001896f,
     -0.078954f,      0.026448f,     -0.044834f,      0.006483f,      0.043683f,      0.086782f,      0.077677f,     -0.090620f,
      0.009447f,     -0.024020f,      0.034384f,     -0.011244f,     -0.047135f,     -0.029499f,     -0.032836f,     -0.023333f,
     -0.008517f,     -0.017085f,      0.023330f,      0.015754f,     -0.025534f,      0.044844f,     -0.037479f,     -0.033848f,
     -0.057277f,      0.063148f,      0.016438f,      0.055427f,      0.083226f,     -0.004150f,     -0.060136f,     -0.000285f,
      0.017949f,     -0.053029f,      0.018540f,     -0.040239f,      0.037006f,     -0.030510f,     -0.055371f,      0.022262f,
      0.010388f,     -0.106783f,     -0.026571f,      0.045162f,     -0.007956f,      0.049344f,      0.008718f,     -0.049856f,
      0.021716f,      0.061726f,      0.027378f,     -0.060082f,      0.109766f,     -0.021358f,      0.034247f,     -0.061190f,
     -0.023645f,      0.001758f,     -0.108973f,     -0.010715f,     -0.026161f,     -0.023574f,      0.022257f,      0.062647f,
     -0.045629f,     -0.027711f,      0.002336f,     -0.036923f,      0.055408f,      0.004603f,     -0.022034f,      0.008501f,
      0.052176f,     -0.000836f,     -0.028150f,     -0.014561f,     -0.004422f,      0.018751f,     -0.035313f,      0.004508f,
     -0.072459f,      0.030550f,      0.013019f,      0.040195f,      0.001549f,      0.018974f,      0.061395f,     -0.039553f,
      0.041378f,      0.029552f,      0.017426f,     -0.040148f,      0.020274f,      0.080554f,      0.053540f,     -0.009980f,
      0.044822f,     -0.051769f,     -0.010698f,      0.051996f,     -0.109038f,     -0.036920f,     -0.056892f,     -0.016733f,
      0.047845f,      0.066698f,     -0.006114f,      0.046329f,      0.105090f,     -0.112558f,     -0.043979f,     -0.040013f,
      0.068215f,      0.016578f,     -0.040024f,      0.007316f,      0.106989f,     -0.048160f,      0.009496f,      0.072743f,
      0.053399f,     -0.130810f,     -0.040547f,     -0.036096f,     -0.002757f,     -0.004414f,      0.044060f,     -0.039357f,
     -0.093367f,     -0.012251f,      0.001340f,     -0.007072f,      0.003623f,      0.003273f,      0.054321f,      0.003127f,
      0.062473f,     -0.089160f,      0.036316f,     -0.002935f,      0.029722f,     -0.002809f,      0.012632f,      0.011466f,
     -0.025243f,      0.030486f,      0.077224f,      0.089394f,      0.077725f,      0.005354f,      0.021836f,     -0.006949f,
      0.005484f,     -0.007359f,      0.025999f,     -0.020987f,     -0.030853f,     -0.040928f,     -0.056346f,      0.036055f,
     -0.000858f,      0.042121f,      0.017955f,     -0.085186f,      0.105017f,     -0.012803f,     -0.028469f,     -0.047805f,
     -0.030157f,      0.067491f,      0.019141f,      0.042729f,      0.054357f,      0.021152f,     -0.071907f,     -0.020856f,
     -0.040745f,      0.055278f,     -0.032246f,      0.064137f,      0.044815f,     -0.071977f,      0.025523f,      0.009666f,
     -0.062905f,     -0.059433f,      0.028791f,     -0.034325f,      0.005782f,     -0.001043f,      0.033529f,     -0.032206f,
      0.066546f,      0.027766f,     -0.043918f,      0.016190f,     -0.031344f,      0.052216f,     -0.100964f,     -0.069212f,
     -0.096717f,      0.065648f,     -0.034738f,     -0.090095f,     -0.008729f,     -0.040648f,      0.012815f,      0.013955f,
      0.039497f,      0.070163f,     -0.028006f,     -0.011238f,     -0.002716f,      0.019765f,     -0.047486f,      0.001592f,
     -0.032793f,      0.034666f,     -0.005464f,      0.024351f,      0.138926f,     -0.033018f,      0.027034f,     -0.040548f,
      0.056430f,      0.048877f,     -0.059848f,      0.054989f,     -0.033085f,     -0.029004f,      0.060737f,      0.022336f,
      0.041254f,     -0.025679f,     -0.073961f,      0.076584f,     -0.057876f,     -0.006501f,     -0.048513f,      0.103461f,
     -0.040868f,      0.105877f,     -0.092315f,     -0.143588f,      0.069692f,     -0.013227f,      0.005366f,     -0.044743f,
     -0.060634f,     -0.012347f,     -0.003168f,     -0.012512f,     -0.059790f,      0.015237f,     -0.069461f,     -0.005367f,
      0.050579f,     -0.040784f,     -0.034168f,     -0.034118f,      0.031084f,     -0.010723f,      0.050545f,      0.014309f,
     -0.051134f,     -0.002629f,     -0.033603f,     -0.058407f,      0.026997f,     -0.084393f,      0.069680f,     -0.058818f,
      0.028029f,      0.062604f,      0.040791f,      0.010114f,     -0.020855f,     -0.024140f,     -0.037519f,     -0.037948f,
     -0.066783f,     -0.038700f,     -0.129391f,     -0.012630f,      0.075811f,      0.016140f,      0.002620f,      0.010099f,
     -0.100866f,      0.005814f,     -0.052632f,      0.010321f,     -0.057110f,      0.055189f,      0.090771f,      0.004822f,
     -0.075381f,     -0.034795f,     -0.007073f,     -0.016068f,     -0.015603f,      0.057129f,     -0.017059f,      0.013294f,
      0.021386f,     -0.004264f,      0.020902f,     -0.000221f,      0.025521f,     -0.026953f,      0.000076f,      0.021612f,
     -0.036415f,     -0.064923f,      0.013048f,      0.030864f,      0.001904f,      0.068157f,      0.078814f,      0.009793f,
     -0.014482f,     -0.081146f,     -0.034694f,      0.078760f,      0.050515f,      0.003360f,     -0.106903f,     -0.034444f,
      0.010424f,     -0.072614f,      0.016575f,      0.038324f,     -0.024885f,      0.034398f,     -0.015574f,     -0.002496f,
      0.002284f,      0.078847f,     -0.033088f,     -0.051847f,      0.056562f,     -0.050586f,      0.046491f,     -0.063842f,
     -0.035408f,     -0.009500f,     -0.079960f,      0.086655f,      0.059227f,      0.020081f,      0.024125f,     -0.029987f,
     -0.038408f,      0.053203f,     -0.065599f,     -0.057713f,      0.048508f,      0.023193f,      0.030954f,     -0.070746f,
     -0.027608f,      0.052090f,     -0.034173f,      0.036441f,     -0.053312f,     -0.029133f,     -0.001014f,     -0.016944f,
      0.006023f,      0.035840f,      0.019209f,     -0.069591f,      0.009304f,      0.015270f,     -0.003421f,     -0.081685f,
      0.038281f,      0.051737f,     -0.029326f,      0.018899f,     -0.084841f,     -0.014529f,     -0.020620f,     -0.045837f,
      0.037558f,     -0.039074f,      0.112915f,     -0.012402f,      0.003545f,     -0.104718f,     -0.005170f,      0.138241f,
      0.029545f,     -0.009052f,     -0.039068f,      0.047905f,      0.121532f,     -0.004385f,      0.063181f,      0.063698f,
      0.122906f,     -0.076578f,      0.081566f,     -0.020494f,      0.050695f,     -0.021227f,      0.045480f,      0.057594f,
     -0.005864f,     -0.058547f,     -0.018326f,      0.028847f,      0.010832f,      0.003335f,      0.063675f,     -0.043294f,
     -0.008121f,      0.026085f,     -0.041664f,      0.063440f,      0.041268f,      0.050698f,      0.006387f,      0.029265f,
      0.116640f,      0.093146f,      0.015764f,     -0.037668f,     -0.068148f,     -0.045550f,      0.011494f,     -0.119826f,
      0.068488f,      0.032962f,      0.015613f,      0.025880f,      0.016914f,      0.001083f,      0.010665f,      0.057116f,
     -0.027201f,     -0.031795f,     -0.023095f,      0.101356f,      0.077394f,     -0.037334f,     -0.017239f,      0.012252f,
     -0.043073f,      0.033092f,     -0.094080f,      0.064694f,     -0.005735f,     -0.065753f,      0.000270f,      0.051720f,
      0.049657f,      0.049024f,     -0.026350f,     -0.025399f,      0.019555f,      0.015782f,      0.025641f,      0.070432f,
      0.025078f,      0.032467f,     -0.079120f,      0.002554f,      0.040696f,     -0.054412f,     -0.001223f,     -0.043907f,
      0.049476f,      0.061819f,     -0.026171f,      0.008908f,      0.064462f,      0.079651f,     -0.078685f,      0.097453f,
     -0.049278f,     -0.018483f,     -0.010331f,     -0.065284f,     -0.040781f,     -0.095257f,     -0.025673f,      0.070697f,
     -0.052653f,     -0.021561f,      0.087235f,     -0.027349f,      0.089815f,     -0.047696f,     -0.046899f,      0.094599f,
      0.024664f,     -0.017512f,      0.047490f,     -0.053188f,      0.022257f,     -0.028646f,      0.036403f,     -0.002095f,
      0.014918f,     -0.041105f,      0.005715f,     -0.091207f,     -0.099117f,     -0.012125f,      0.098387f,      0.048674f,
      0.025803f,     -0.014575f,      0.036518f,      0.105084f,      0.144462f,      0.001450f,     -0.014100f,      0.019799f,
      0.049054f,      0.015693f,     -0.042960f,     -0.038412f,      0.066172f,     -0.135276f,     -0.000300f,      0.040694f,
      0.003119f,      0.020587f,     -0.019806f,      0.100710f,     -0.042119f,     -0.027689f,      0.021384f,     -0.043040f,
     -0.143964f,      0.055321f,     -0.102243f,     -0.009164f,     -0.072690f,      0.019690f,     -0.051824f,      0.081661f,
      0.038247f,     -0.070625f,      0.038565f,     -0.034870f,     -0.044897f,     -0.030881f,     -0.032103f,     -0.017609f,
      0.075040f,      0.018698f,     -0.011493f,      0.018721f,     -0.022407f,      0.048522f,     -0.045970f,      0.019011f,
      0.055541f,     -0.012134f,     -0.114876f,     -0.018372f,     -0.100244f,      0.014451f,      0.032553f,      0.051638f,
      0.019539f,      0.053851f,      0.005843f,      0.007856f,      0.091684f,      0.044382f,      0.050645f,      0.053467f,
      0.003651f,      0.008154f,     -0.061013f,     -0.043766f,     -0.003581f,      0.068536f,      0.008506f,      0.033868f,
     -0.049357f,     -0.111171f,      0.042264f,      0.014720f,      0.014741f,      0.093054f,      0.040728f,     -0.009566f,
      0.004956f,     -0.050523f,      0.057896f,     -0.115339f,     -0.041628f,     -0.051143f,     -0.077428f,     -0.015492f,
     -0.008585f,      0.027265f,     -0.041197f,     -0.064287f,      0.045860f,      0.076054f,     -0.095768f,      0.020438f,
      0.054707f,      0.041202f,     -0.007257f,     -0.025888f,      0.019631f,     -0.070543f,      0.059440f,      0.016795f,
     -0.010776f,      0.099853f,      0.064785f,     -0.073570f,     -0.042867f,     -0.020856f,     -0.069452f,     -0.007910f,
      0.021943f,     -0.033563f,      0.012105f,      0.025674f,      0.020925f,      0.001004f,     -0.053309f,     -0.074354f,
      0.035007f,     -0.076893f,      0.013844f,     -0.068118f,      0.022916f,      0.016008f,     -0.052663f,      0.016082f,
     -0.040372f,     -0.078900f,      0.020961f,     -0.029864f,     -0.046801f,      0.018854f,      0.106580f,     -0.049673f,
     -0.045609f,     -0.142503f,     -0.009715f,      0.043718f,      0.058038f,      0.002451f,      0.034829f,      0.049850f,
      0.075636f,      0.040473f,      0.010971f,      0.025501f,     -0.044252f,      0.004796f,     -0.054360f,     -0.031153f,
     -0.016844f,      0.011331f,     -0.028823f,      0.090828f,      0.090799f,     -0.068929f,     -0.026351f,      0.046765f,
      0.082179f,     -0.046557f,      0.084296f,      0.049120f,      0.028245f,      0.033587f,      0.037451f,      0.040252f,
      0.082244f,      0.075570f,     -0.039746f,     -0.052481f,     -0.059086f,      0.098430f,     -0.054465f,      0.044519f,
     -0.009508f,     -0.069936f,     -0.018491f,     -0.039182f,      0.044097f,     -0.072122f,      0.123750f,      0.027294f,
     -0.000723f,      0.016642f,      0.062504f,     -0.011085f,     -0.036053f,      0.050445f,      0.082741f,     -0.039265f,
      0.037490f,     -0.000812f,     -0.060680f,      0.034941f,      0.039573f,     -0.076211f,      0.029148f,      0.022877f,
      0.030496f,     -0.067382f,      0.029157f,     -0.007162f,     -0.052715f,      0.000088f,     -0.031497f,      0.071852f,
      0.008807f,      0.041277f,     -0.000125f,      0.026228f,      0.031532f,     -0.038963f,      0.000213f,     -0.067936f,
     -0.084307f,      0.113124f,      0.055301f,      0.013207f,      0.006485f,      0.040300f,      0.057603f,      0.112069f,
     -0.104205f,      0.029914f,     -0.012869f,     -0.007133f,     -0.032766f,      0.001458f,      0.004780f,      0.121411f,
     -0.035380f,      0.103139f,      0.053247f,      0.127984f,      0.012282f,     -0.008582f,      0.103899f,     -0.067267f,
      0.055382f,     -0.038286f,     -0.029053f,     -0.062222f,      0.027450f,      0.022070f,     -0.018569f,      0.026764f,
      0.021026f,      0.049846f,     -0.088675f,      0.103128f,      0.037847f,     -0.081671f,     -0.089841f,     -0.006180f,
     -0.034895f,      0.127700f,     -0.043477f,     -0.057757f,     -0.045048f,     -0.022319f,     -0.093494f,      0.009005f,
      0.034800f,     -0.017781f,      0.053789f,     -0.015384f,      0.080885f,     -0.005372f,      0.040128f,     -0.017912f,
      0.057820f,     -0.004151f,      0.002883f,      0.014497f,      0.003394f,      0.075223f,     -0.008349f,      0.018657f,
     -0.038103f,      0.025201f,     -0.065144f,      0.073037f,      0.001020f,      0.017277f,      0.016755f,     -0.049617f,
     -0.018828f,     -0.032221f,     -0.052021f,     -0.048958f,     -0.036536f,     -0.059908f,      0.078757f,      0.027900f,
     -0.004153f,     -0.011142f,     -0.008720f,      0.063368f,      0.007324f,      0.017983f,     -0.048168f,      0.033649f,
      0.048956f,     -0.009772f,      0.060004f,      0.027023f,     -0.002081f,      0.050020f,      0.000168f,     -0.024296f,
     -0.081786f,      0.049654f,     -0.003482f,     -0.025875f,      0.011522f,      0.036654f,      0.076013f,      0.037695f,
     -0.009579f,      0.001345f,     -0.101883f,      0.003514f,      0.055254f,      0.042267f,     -0.100786f,     -0.057587f,
      0.020054f,     -0.021161f,     -0.041924f,     -0.052335f,      0.073786f,     -0.029682f,      0.015336f,      0.055047f,
     -0.090923f,     -0.004489f,      0.028552f,      0.003886f,     -0.006103f,      0.052828f,     -0.077071f,      0.027335f,
      0.016253f,      0.010146f,      0.008183f,      0.025046f,     -0.093064f,      0.069932f,     -0.014551f,      0.020495f,
     -0.087863f,      0.080465f,      0.043114f,     -0.036138f,     -0.022923f,      0.066101f,      0.093289f,     -0.034100f,
      0.008471f,      0.108509f,     -0.030568f,     -0.030962f,     -0.010406f,      0.025309f,      0.002259f,      0.015640f,
     -0.011980f,     -0.066953f,     -0.020293f,     -0.016137f,     -0.031786f,     -0.035367f,      0.052670f,     -0.078783f,
      0.102934f,     -0.031000f,     -0.036838f,      0.083700f,      0.012312f,      0.026233f,     -0.027433f,      0.117515f,
     -0.059688f,      0.051162f,      0.020741f,      0.031526f,     -0.024800f,     -0.028171f,     -0.051981f,      0.002498f,
     -0.045951f,      0.058669f,     -0.017850f,     -0.005644f,     -0.069704f,      0.034265f,      0.003887f,      0.046346f,
     -0.072205f,      0.181069f,     -0.011350f,      0.024072f,     -0.044311f,      0.007558f,      0.008184f,     -0.043471f,
      0.072829f,      0.037633f,     -0.083055f,     -0.042075f,     -0.089796f,      0.018579f,     -0.020493f,      0.020187f,
      0.004059f,     -0.068371f,     -0.030326f,      0.058354f,     -0.081630f,     -0.035385f,     -0.055874f,     -0.038848f,
     -0.034292f,     -0.038914f,      0.073827f,     -0.015211f,     -0.042246f,     -0.005748f,      0.021617f,     -0.070322f,
     -0.073083f,      0.035845f,     -0.007364f,      0.096859f,      0.030290f,      0.053783f,     -0.081333f,     -0.050150f,
     -0.095952f,     -0.019176f,      0.052245f,      0.039254f,     -0.075797f,      0.029973f,      0.073682f,     -0.064225f,
     -0.047193f,      0.034959f,     -0.061508f,     -0.040499f,     -0.049274f,     -0.046111f,     -0.086473f,     -0.024270f,
      0.050904f,     -0.001935f,     -0.115368f,     -0.029787f,     -0.000226f,     -0.028575f,      0.025555f,      0.028918f,
      0.065374f,     -0.064898f,     -0.042556f,      0.007547f,     -0.013195f,      0.000136f,      0.020425f,      0.058428f,
     -0.006370f,      0.042252f,     -0.033244f,     -0.018849f,      0.059068f,      0.114013f,      0.006899f,     -0.013759f,
     -0.037630f,     -0.064890f,     -0.005046f,      0.027679f,     -0.013780f,     -0.084818f,     -0.067932f,      0.130524f,
      0.016615f,     -0.102699f,     -0.050154f,      0.094993f,     -0.024298f,      0.069531f,     -0.045875f,      0.043212f,
      0.019217f,     -0.048460f,      0.039922f,      0.066134f,     -0.062214f,     -0.071035f,      0.069516f,      0.079217f,
     -0.008594f,     -0.050416f,      0.013657f,     -0.016224f,      0.021326f,      0.028672f,     -0.067678f,     -0.002517f,
     -0.024278f,     -0.044529f,     -0.036914f,      0.013825f,      0.008532f,      0.019525f,     -0.023926f,     -0.086771f,
     -0.107319f,     -0.052918f,      0.025738f,     -0.088988f,      0.013874f,     -0.002360f,     -0.057237f,     -0.029779f,
     -0.045158f,      0.030462f,      0.089783f,      0.052676f,      0.020202f,     -0.073753f,     -0.018844f,     -0.037969f,
     -0.025197f,      0.030629f,     -0.067372f,      0.093918f,      0.060414f,      0.062586f,      0.024685f,     -0.053232f,
      0.011587f,      0.068643f,     -0.013972f,      0.013763f,     -0.055427f,     -0.029391f,     -0.034820f,     -0.162928f,
     -0.086127f,     -0.021239f,     -0.007356f,      0.010584f,      0.083609f,     -0.015788f,      0.098849f,      0.082896f,
      0.014814f,     -0.023647f,      0.027323f,      0.048357f,      0.042685f,     -0.017183f,     -0.062405f,     -0.031431f,
     -0.070323f,     -0.016520f,      0.021884f,      0.067507f,      0.037098f,      0.012227f,      0.057494f,      0.057373f,
      0.053277f,     -0.015262f,     -0.070851f,      0.058915f,      0.032080f,      0.077694f,      0.019793f,      0.035905f,
     -0.039409f,     -0.025892f,      0.021271f,      0.015855f,     -0.042140f,      0.001411f,      0.029290f,     -0.041636f,
     -0.042368f,      0.008818f,     -0.073914f,     -0.033731f,      0.049214f,     -0.033369f,     -0.030191f,      0.033706f,
     -0.026427f,     -0.066671f,      0.062537f,      0.055767f,     -0.010885f,      0.041392f,      0.052344f,      0.015211f,
     -0.002661f,      0.045819f,      0.005980f,     -0.000852f,     -0.007841f,     -0.018180f,      0.033923f,     -0.069281f,
     -0.066185f,      0.107829f,      0.035427f,      0.006762f,      0.071362f,      0.008891f,      0.078808f,      0.020353f,
      0.093946f,      0.006431f,     -0.024459f,     -0.128013f,      0.014089f,      0.014079f,      0.026461f,     -0.000736f,
     -0.013375f,      0.108371f,      0.004909f,      0.023282f,     -0.033767f,      0.030138f,      0.041587f,     -0.039422f,
     -0.082118f,     -0.083275f,      0.028864f,      0.004137f,      0.001728f,      0.041980f,      0.033160f,     -0.006216f,
     -0.003658f,     -0.026331f,      0.006065f,     -0.002665f,      0.036390f,      0.020009f,     -0.035290f,     -0.056273f,
      0.001298f,     -0.126116f,      0.023459f,      0.023361f,      0.007898f,     -0.033331f,      0.046280f,     -0.018355f,
      0.107438f,      0.099173f,     -0.080883f,     -0.002764f,     -0.034534f,      0.043734f,      0.035335f,      0.001172f,
     -0.047503f,     -0.145191f,     -0.000703f,     -0.078242f,      0.015751f,      0.090078f,      0.024450f,      0.044216f,
     -0.010162f,      0.069581f,     -0.045955f,      0.022346f,     -0.097733f,      0.010483f,     -0.057477f,      0.068391f,
     -0.095003f,     -0.011854f,      0.032203f,      0.054920f,      0.012721f,     -0.056297f,     -0.053373f,      0.076468f,
     -0.076879f,     -0.078445f,      0.066552f,      0.044848f,      0.018667f,     -0.002839f,     -0.039153f,     -0.042176f,
     -0.032485f,      0.076788f,     -0.048166f,     -0.112438f,     -0.039746f,     -0.033889f,     -0.004885f,      0.012483f,
      0.085985f,      0.029015f,      0.054717f,      0.037729f,     -0.134941f,     -0.077232f,     -0.020185f,     -0.072030f,
     -0.069083f,      0.052796f,     -0.102468f,     -0.059002f,     -0.018251f,      0.065701f,      0.086013f,     -0.027685f,
     -0.036492f,      0.033940f,      0.021761f,     -0.141164f,      0.087716f,      0.096775f,     -0.045663f,      0.045652f,
     -0.016983f,      0.018853f,     -0.017068f,     -0.002417f,      0.009076f,      0.010494f,      0.057739f,      0.118221f,
      0.038007f,      0.070934f,     -0.005942f,      0.054216f,      0.025695f,      0.142563f,     -0.052624f,      0.012183f,
      0.021177f,     -0.044199f,      0.064723f,      0.006018f,      0.012371f,      0.031974f,      0.016966f,      0.020222f,
      0.010137f,     -0.019688f,     -0.000679f,      0.022700f,     -0.053475f,     -0.020084f,      0.011188f,      0.022634f,
      0.026512f,      0.022714f,     -0.003008f,     -0.096998f,     -0.055783f,     -0.062176f,     -0.032467f,     -0.019918f,
     -0.050108f,      0.095080f,     -0.008187f,      0.029314f,     -0.031728f,      0.027896f,      0.063022f,     -0.002342f,
      0.008974f,     -0.176867f,      0.071753f,     -0.124477f,     -0.037784f,     -0.009159f,      0.004878f,     -0.039082f,
      0.065623f,      0.027387f,     -0.038187f,      0.068238f,     -0.013003f,     -0.114980f,      0.058292f,     -0.003791f,
     -0.041239f,      0.022504f,      0.031809f,     -0.070955f,      0.043461f,      0.011496f,     -0.021209f,     -0.000613f,
      0.067238f,      0.058275f,     -0.072485f,     -0.016695f,     -0.011805f,     -0.055295f,      0.018636f,      0.039685f,
     -0.030323f,     -0.038821f,      0.048551f,      0.003908f,     -0.084951f,      0.007261f,     -0.049021f,     -0.049271f,
      0.027568f,      0.049823f,     -0.020121f,     -0.094206f,      0.006574f,      0.031271f,      0.109430f,      0.010107f,
      0.038751f,      0.096572f,      0.092511f,     -0.033405f,      0.000546f,     -0.050780f,      0.075589f,      0.023617f,
     -0.008867f,      0.011014f,      0.009660f,      0.036260f,      0.031878f,      0.059291f,     -0.019713f,     -0.040590f,
      0.017964f,     -0.032927f,      0.014963f,     -0.043517f,     -0.004782f,     -0.012788f,     -0.021845f,     -0.083915f,
     -0.012073f,      0.027390f,     -0.005536f,      0.035702f,      0.033533f,     -0.037213f,      0.014816f,      0.014483f,
     -0.044187f,      0.012524f,     -0.061373f,     -0.111751f,      0.060399f,      0.019056f,      0.074690f,     -0.064581f,
     -0.002102f,      0.150798f,     -0.057714f,     -0.051786f,     -0.011781f,     -0.002036f,      0.060370f,     -0.051682f,
      0.069420f,      0.000384f,     -0.026786f,      0.055188f,      0.110096f,     -0.001428f,     -0.043427f,      0.083181f,
     -0.002799f,     -0.017335f,     -0.005852f,     -0.010068f,     -0.012286f,     -0.130723f,     -0.041265f,     -0.008192f,
     -0.000356f,     -0.049395f,      0.045808f,      0.014919f,      0.031211f,      0.035543f,      0.008280f,      0.020364f,
      0.023703f,     -0.037184f,      0.051604f,     -0.047169f,     -0.019494f,     -0.018737f,      0.049973f,      0.060931f,
      0.141534f,     -0.044958f,      0.001431f,     -0.058462f,      0.025231f,     -0.002887f,      0.042089f,      0.061791f,
      0.025073f,     -0.062707f,      0.030566f,     -0.025858f,      0.009541f,     -0.010085f,      0.017750f,      0.066905f,
      0.020468f,     -0.059077f,      0.006847f,     -0.033640f,      0.043002f,     -0.050916f,      0.129607f,      0.048018f,
      0.110283f,      0.112590f,      0.001004f,      0.039493f,      0.106521f,      0.018591f,      0.000971f,     -0.041390f,
      0.046926f,      0.019438f,      0.015236f,     -0.043439f,     -0.031192f,      0.001093f,     -0.062330f,     -0.023985f,
      0.044516f,      0.010186f,      0.009661f,     -0.106954f,     -0.087224f,      0.101263f,      0.034186f,      0.047204f,
     -0.077185f,     -0.062795f,      0.038700f,      0.058473f,      0.018121f,     -0.002530f,     -0.016860f,     -0.024101f,
      0.000152f,      0.078581f,      0.034263f,     -0.029911f,     -0.008766f,      0.065413f,      0.048884f,     -0.029773f,
      0.060882f,      0.013914f,      0.011426f,      0.007175f,      0.034538f,      0.030483f,      0.065953f,     -0.019621f,
     -0.025014f,      0.068032f,      0.031811f,     -0.064989f,      0.005809f,      0.026631f,      0.040901f,      0.052467f,
     -0.122863f,      0.020562f,     -0.026566f,      0.009745f,     -0.033787f,      0.090041f,     -0.046587f,     -0.005507f,
     -0.050457f,      0.044916f,      0.042892f,      0.006242f,     -0.033668f,      0.038277f,      0.035259f,      0.066793f,
      0.014917f,     -0.020030f,     -0.054705f,      0.044730f,     -0.065329f,      0.011622f,      0.069889f,     -0.015090f,
      0.020701f,     -0.069222f,     -0.070182f,     -0.027976f,      0.062497f,      0.037538f,      0.064168f,     -0.015568f,
     -0.045105f,      0.005187f,     -0.092819f,     -0.010365f,     -0.009116f,     -0.029308f,      0.001800f,     -0.020348f,
      0.028085f,      0.085983f,     -0.019567f,      0.035323f,     -0.017284f,      0.022329f,      0.025404f,      0.003975f,
     -0.058141f,     -0.032244f,      0.007048f,      0.024636f,      0.056613f,     -0.044350f,      0.035146f,     -0.093065f,
      0.007763f,     -0.053925f,     -0.008445f,      0.028900f,     -0.031852f,     -0.017900f,     -0.055854f,     -0.073431f,
      0.001125f,      0.019942f,      0.009144f,     -0.116719f,     -0.035690f,     -0.039696f,      0.028606f,     -0.084958f,
     -0.004934f,      0.081204f,     -0.040539f,      0.025900f,     -0.006476f,      0.019331f,      0.045488f,     -0.054931f,
     -0.031944f,      0.015724f,     -0.101390f,      0.028559f,     -0.003121f,     -0.061907f,     -0.099523f,      0.008571f,
      0.059102f,      0.003817f,     -0.062799f,      0.065773f,      0.025816f,     -0.011659f,     -0.064145f,      0.018915f,
     -0.040622f,     -0.026028f,      0.084625f,      0.011969f,      0.072667f,     -0.045093f,     -0.045046f,      0.045185f,
     -0.038980f,      0.062044f,     -0.080590f,      0.017974f,      0.043991f,     -0.043453f,      0.000192f,      0.016777f,
      0.067550f,     -0.037272f,      0.006990f,     -0.031956f,     -0.130490f,     -0.018820f,     -0.126630f,     -0.047362f,
     -0.011705f,     -0.068335f,      0.010589f,      0.016610f,      0.002060f,     -0.008120f,      0.003771f,     -0.065274f,
     -0.021081f,      0.012836f,     -0.006381f,     -0.036978f,      0.081108f,     -0.023312f,      0.075354f,     -0.000116f,
      0.030974f,      0.169314f,     -0.003977f,     -0.063407f,      0.005031f,      0.036812f,      0.020009f,     -0.062629f,
     -0.004982f,      0.043849f,     -0.042280f,     -0.009647f,      0.059965f,     -0.025525f,     -0.039890f,      0.000676f,
     -0.006816f,     -0.019812f,     -0.101599f,      0.081547f,      0.066411f,      0.108036f,     -0.028852f,      0.022293f,
      0.021924f,     -0.041913f,      0.095755f,     -0.016975f,     -0.117430f,      0.040429f,      0.040255f,      0.019580f,
     -0.085947f,     -0.034329f,      0.005537f,     -0.018616f,     -0.014447f,     -0.050265f,      0.121108f,     -0.006104f,
      0.111783f,      0.051338f,     -0.009763f,      0.045918f,     -0.031400f,     -0.074815f,      0.064627f,      0.021238f,
     -0.039504f,     -0.087879f,      0.024891f,     -0.030801f,      0.046635f,     -0.120739f,      0.113487f,      0.106391f,
     -0.113562f,      0.003413f,     -0.038807f,     -0.079396f,     -0.030867f,     -0.007618f,     -0.052258f,      0.119236f,
     -0.009712f,      0.067791f,      0.042297f,     -0.030987f,     -0.064743f,     -0.046503f,     -0.031320f,     -0.055741f,
     -0.023364f,     -0.001677f,      0.037545f,     -0.062210f,      0.052164f,      0.019209f,      0.058906f,      0.002135f,
     -0.030395f,     -0.054083f,      0.063257f,      0.007410f,      0.050847f,      0.110613f,     -0.072064f,      0.002008f,
     -0.051646f,      0.001707f,      0.044189f,      0.054431f,     -0.018385f,     -0.094194f,      0.085051f,     -0.010321f,
      0.000954f,      0.003230f,     -0.037457f,     -0.025258f,     -0.036388f,      0.022603f,     -0.089848f,      0.058406f,
     -0.010313f,     -0.042665f,      0.058737f,     -0.055408f,     -0.059697f,     -0.093019f,      0.060461f,      0.019557f,
     -0.061490f,     -0.035007f,      0.046886f,      0.106982f,      0.036957f,      0.054685f,     -0.053665f,      0.011208f,
     -0.021015f,     -0.036874f,      0.021508f,      0.004494f,      0.014700f,     -0.053974f,     -0.060712f,     -0.015115f,
     -0.001809f,     -0.008626f,      0.062916f,      0.023766f,     -0.043001f,      0.037416f,     -0.086389f,      0.045302f,
      0.015307f,     -0.035972f,     -0.004545f,      0.016662f,      0.028453f,      0.059279f,     -0.067779f,     -0.038174f,
      0.054358f,     -0.040667f,      0.042702f,     -0.083630f,      0.037249f,      0.032033f,     -0.055771f,     -0.076532f,
     -0.057001f,     -0.008902f,     -0.090526f,      0.075851f,     -0.029289f,      0.027024f,      0.027491f,      0.027526f,
      0.093080f,      0.053193f,     -0.012233f,     -0.047465f,      0.035009f,      0.070984f,     -0.033697f,      0.062966f,
     -0.000733f,      0.034744f,     -0.026740f,     -0.108912f,      0.009548f,     -0.017612f,     -0.012458f,      0.021431f,
     -0.049215f,     -0.116446f,     -0.048951f,      0.131469f,     -0.037475f,     -0.010258f,      0.004666f,      0.034700f,
      0.044908f,     -0.079078f,      0.066316f,     -0.025515f,      0.017272f,     -0.001746f,      0.035041f,     -0.025004f,
      0.034400f,      0.004222f,      0.046219f,     -0.003786f,     -0.028559f,     -0.025806f,      0.004090f,     -0.065526f,
      0.047896f,     -0.049415f,     -0.084825f,      0.011428f,      0.050100f,     -0.018095f,     -0.047949f,     -0.037897f,
     -0.029711f,      0.089137f,      0.045024f,      0.053909f,      0.049329f,     -0.061474f,     -0.068539f,     -0.010810f,
     -0.036551f,      0.022946f,      0.060465f,     -0.051161f,      0.025181f,      0.036377f,      0.009111f,      0.061398f,
     -0.062429f,      0.088850f,     -0.056979f,      0.083394f,     -0.018168f,     -0.055174f,     -0.038662f,      0.017394f,
      0.005869f,      0.107969f,     -0.001860f,     -0.057882f,     -0.008006f,      0.047532f,     -0.058290f,      0.010166f,
     -0.013399f,     -0.037648f,     -0.025338f,      0.082859f,     -0.013018f,     -0.022232f,     -0.077683f,      0.059901f,
     -0.081078f,      0.035216f,     -0.011471f,      0.087733f,     -0.063372f,      0.008534f,      0.128368f,      0.018131f,
      0.006872f,     -0.028541f,     -0.087517f,     -0.042169f,      0.066282f,     -0.041762f,      0.054015f,     -0.059729f,
     -0.038947f,     -0.086634f,     -0.092385f,     -0.042682f,     -0.147424f,      0.053689f,     -0.065123f,     -0.014289f,
      0.039650f,     -0.014107f,     -0.019845f,      0.115367f,     -0.002742f,     -0.069596f,      0.013111f,     -0.018335f,
      0.044750f,     -0.094517f,      0.057086f,     -0.080571f,     -0.031545f,      0.008267f,     -0.079021f,     -0.082176f,
      0.017963f,     -0.073062f,     -0.067514f,     -0.046540f,      0.090294f,      0.080227f,      0.026276f,      0.025236f,
      0.075293f,     -0.003442f,     -0.005904f,      0.078765f,      0.066720f,     -0.041206f,      0.005386f,     -0.065490f,
     -0.029862f,      0.005268f,     -0.169092f,      0.005134f,      0.039601f,     -0.068603f,      0.015795f,      0.081511f,
      0.018306f,     -0.029880f,      0.013201f,     -0.031410f,      0.103088f,     -0.013250f,      0.033925f,     -0.112481f,
      0.045367f,      0.006166f,     -0.056964f,      0.038379f,      0.052304f,     -0.008679f,      0.126493f,      0.017371f,
      0.085614f,      0.086399f,     -0.089330f,     -0.023232f,     -0.022572f,     -0.000711f,      0.071925f,      0.020148f,
     -0.112423f,     -0.038836f,     -0.004850f,     -0.017875f,      0.018741f,      0.010222f,      0.056869f,     -0.040094f,
     -0.017081f,      0.058791f,      0.061632f,     -0.014004f,     -0.055929f,     -0.019841f,     -0.053173f,     -0.022511f,
     -0.109866f,      0.133288f,     -0.025050f,      0.010500f,      0.013566f,      0.048603f,      0.041212f,     -0.024568f,
      0.026613f,      0.022611f,      0.013266f,      0.026369f,     -0.005517f,      0.038595f,     -0.016960f,     -0.072663f,
     -0.025020f,      0.019902f,      0.052582f,      0.050452f,      0.039925f,     -0.124006f,     -0.086203f,      0.074823f,
      0.051335f,     -0.011119f,      0.107034f,     -0.006500f,      0.029451f,      0.029577f,      0.075354f,      0.091209f,
      0.050872f,     -0.027736f,     -0.012218f,     -0.033435f,     -0.047109f,     -0.023081f,     -0.021908f,     -0.012228f,
      0.060909f,     -0.017288f,      0.006353f,     -0.003162f,      0.021175f,      0.018311f,     -0.131150f,     -0.006219f,
     -0.005319f,     -0.037190f,      0.103636f,     -0.073779f,     -0.035151f,     -0.049249f,      0.035533f,     -0.011418f,
     -0.031351f,      0.004596f,     -0.085260f,      0.028760f,     -0.009774f,     -0.006820f,      0.084558f,      0.011025f,
     -0.020596f,      0.047892f,     -0.041521f,      0.007709f,     -0.002802f,      0.025013f,     -0.004182f,      0.093201f,
      0.039860f,      0.013020f,      0.035684f,      0.033957f,     -0.001345f,      0.018733f,     -0.039020f,     -0.046270f,
      0.090742f,      0.071715f,      0.019175f,     -0.040060f,      0.011533f,     -0.051426f,     -0.096860f,     -0.038318f,
     -0.033912f,      0.005341f,      0.042490f,      0.022608f,      0.018235f,     -0.037493f,     -0.008254f,     -0.056395f,
     -0.073314f,      0.048962f,      0.013960f,     -0.009925f,      0.049189f,     -0.064003f,     -0.044786f,     -0.045635f,
     -0.001214f,      0.044193f,      0.017638f,      0.015116f,     -0.030128f,     -0.019467f,     -0.054231f,      0.010103f,
     -0.102946f,     -0.000626f,     -0.055224f,      0.156050f,      0.030431f,     -0.023142f,      0.048521f,     -0.031319f,
     -0.023563f,     -0.054803f,     -0.000747f,      0.059660f,      0.035439f,     -0.062249f,     -0.031187f,     -0.048737f,
     -0.019701f,     -0.000272f,      0.098456f,     -0.013410f,      0.090456f,     -0.104412f,      0.000933f,     -0.012274f,
     -0.092888f,     -0.013807f,     -0.057896f,     -0.049418f,     -0.012809f,      0.035940f,      0.029928f,      0.048335f,
     -0.056168f,     -0.017913f,     -0.070177f,     -0.046027f,     -0.088240f,      0.016811f,      0.080281f,     -0.015588f,
     -0.038486f,      0.053950f,      0.076777f,     -0.057639f,      0.041276f,     -0.038232f,      0.042143f,      0.048072f,
      0.028826f,      0.075496f,      0.050941f,     -0.028630f,     -0.047399f,      0.004605f,     -0.051287f,      0.021874f,
     -0.030761f,      0.008191f,      0.037504f,      0.000460f,     -0.061449f,     -0.026597f,     -0.052638f,     -0.003787f,
      0.057187f,     -0.033613f,      0.021900f,      0.054726f,      0.030295f,     -0.016046f,      0.038969f,     -0.042979f,
     -0.004835f,      0.006481f,     -0.015993f,     -0.055498f,     -0.091568f,     -0.082437f,     -0.024535f,     -0.001994f,
      0.015226f,      0.013392f,     -0.013698f,     -0.002332f,     -0.033878f,      0.001776f,     -0.040294f,      0.025037f,
     -0.027979f,      0.071084f,      0.030758f,      0.021960f,     -0.061531f,      0.033017f,     -0.059300f,      0.077280f,
      0.006270f,     -0.000685f,      0.028826f,      0.008994f,      0.027242f,      0.076710f,      0.081875f,      0.053506f,
     -0.051697f,      0.004623f,     -0.044782f,     -0.004224f,      0.000972f,      0.015205f,      0.024177f,      0.019307f,
      0.110062f,      0.001979f,      0.009977f,     -0.028570f,      0.037194f,      0.047153f,     -0.006328f,     -0.046209f,
     -0.081788f,     -0.055898f,      0.002137f,      0.052317f,     -0.053718f,     -0.124046f,      0.022025f,     -0.055048f,
     -0.048536f,     -0.002520f,      0.034915f,      0.001922f,      0.001113f,     -0.040573f,      0.003145f,      0.011942f,
     -0.071909f,      0.007274f,      0.045673f,     -0.033230f,      0.022242f,      0.045029f,      0.047081f,     -0.019425f,
      0.021508f,      0.023189f,     -0.036906f,     -0.074611f,     -0.030331f,      0.040882f,     -0.000926f,     -0.058638f,
      0.036062f,     -0.012358f,      0.023169f,     -0.118631f,      0.020006f,     -0.037857f,     -0.097732f,     -0.073096f,
      0.073801f,      0.035198f,      0.040929f,     -0.075314f,     -0.055059f,     -0.031662f,     -0.036253f,     -0.043482f,
     -0.026087f,      0.013901f,      0.010038f,     -0.039165f,     -0.019711f,      0.128474f,     -0.010089f,      0.050271f,
     -0.018527f,      0.115533f,     -0.063147f,     -0.047005f,      0.027893f,     -0.079858f,     -0.056376f,     -0.025669f,
     -0.022648f,      0.006663f,     -0.079457f,      0.019813f,     -0.002903f,      0.086584f,      0.000323f,     -0.021372f,
     -0.039415f,     -0.022014f,      0.028701f,     -0.025136f,      0.039663f,      0.021759f,      0.002601f,     -0.022756f,
     -0.072041f,     -0.023210f,     -0.010037f,      0.045809f,      0.012727f,     -0.057883f,     -0.021412f,     -0.025205f,
      0.039634f,      0.001826f,      0.015343f,     -0.033436f,     -0.007451f,      0.001208f,      0.068411f,     -0.065739f,
     -0.025264f,     -0.123497f,     -0.014659f,     -0.013500f,     -0.061933f,      0.049226f,      0.002356f,     -0.047245f,
     -0.076227f,      0.020329f,     -0.043809f,     -0.062985f,     -0.005393f,     -0.092588f,     -0.026101f,     -0.003196f,
      0.005065f,      0.028602f,      0.018968f,      0.038482f,      0.000404f,     -0.074799f,      0.003491f,      0.074853f,
      0.055010f,      0.008642f,     -0.009921f,     -0.059385f,     -0.160131f,      0.027746f,     -0.050310f,      0.117415f,
     -0.001893f,     -0.008149f,      0.020667f,     -0.038201f,     -0.027009f,      0.006057f,     -0.060359f,      0.017001f,
      0.049350f,      0.000903f,      0.090238f,      0.048492f,     -0.048083f,     -0.003990f,      0.023399f,     -0.031469f,
     -0.037827f,     -0.026061f,      0.026265f,     -0.072650f,     -0.032987f,     -0.002772f,      0.009179f,     -0.014016f,
      0.016029f,      0.130939f,     -0.160601f,     -0.075631f,      0.008642f,      0.053172f,      0.100220f,      0.052338f,
      0.041642f,     -0.032356f,      0.027141f,      0.021140f,      0.071086f,     -0.050439f,     -0.031516f,      0.050329f,
     -0.064280f,      0.030224f,     -0.008459f,      0.037913f,      0.046453f,     -0.016777f,      0.055056f,      0.038404f,
      0.078641f,      0.029610f,      0.041757f,      0.104156f,      0.000251f,      0.056815f,      0.063743f,     -0.003792f,
      0.031425f,      0.015330f,      0.000866f,      0.009275f,     -0.026568f,      0.067214f,     -0.027101f,      0.008368f,
      0.055671f,      0.003054f,      0.112388f,      0.082483f,     -0.046060f,      0.075010f,      0.031748f,     -0.004107f,
     -0.060216f,     -0.023298f,     -0.066680f,      0.022970f,     -0.017519f,      0.035397f,      0.065938f,      0.037556f,
     -0.092008f,      0.065804f,      0.000011f,      0.096106f,     -0.001097f,     -0.014170f,     -0.069190f,     -0.017737f,
      0.015804f,     -0.055154f,      0.001598f,     -0.058515f,      0.007076f,      0.036057f,      0.018868f,      0.039213f,
      0.030824f,      0.067092f,     -0.009571f,      0.078483f,      0.058225f,      0.030961f,     -0.052094f,     -0.055616f,
      0.045103f,     -0.002769f,     -0.050735f,      0.071515f,     -0.087794f,      0.010776f,     -0.037055f,      0.016361f,
      0.052210f,     -0.117797f,      0.046421f,      0.024599f,     -0.100152f,     -0.033433f,     -0.028558f,     -0.100283f,
      0.098883f,      0.016141f,     -0.044901f,     -0.008517f,      0.009026f,      0.000560f,     -0.022807f,      0.101464f,
      0.026844f,      0.036945f,     -0.043992f,     -0.008319f,     -0.002300f,      0.006231f,      0.123437f,      0.033007f,
     -0.121389f,     -0.022761f,      0.008848f,     -0.025808f,      0.027863f,      0.011676f,      0.048170f,     -0.053054f,
     -0.063275f,     -0.055975f,     -0.008968f,      0.008178f,      0.014185f,      0.011223f,      0.028774f,      0.058973f,
     -0.025029f,     -0.021719f,     -0.106548f,     -0.043550f,      0.067975f,      0.028296f,      0.071801f,      0.021329f,
     -0.028304f,     -0.047188f,     -0.097609f,     -0.026217f,      0.076053f,      0.054483f,      0.018553f,     -0.009685f,
     -0.046677f,     -0.017037f,     -0.013921f,      0.029320f,      0.017035f,     -0.054751f,     -0.025745f,      0.018811f,
     -0.154748f,      0.035911f,      0.017653f,      0.033104f,      0.032395f,     -0.038774f,      0.007199f,      0.142567f,
     -0.022434f,     -0.050972f,     -0.042356f,      0.052225f,     -0.027446f,      0.013861f,     -0.125209f,      0.019214f,
     -0.134443f,      0.091795f,     -0.055504f,      0.065266f,     -0.035563f,     -0.024399f,      0.033007f,      0.067285f,
     -0.014971f,      0.054606f,      0.122426f,      0.004168f,     -0.034858f,     -0.001673f,      0.111197f,      0.027404f,
      0.062938f,      0.047300f,      0.013735f,      0.008567f,      0.007206f,      0.049266f,      0.035834f,      0.052238f,
     -0.048264f,     -0.058472f,      0.047606f,      0.000327f,      0.046796f,     -0.137603f,      0.013590f,     -0.022798f,
     -0.001624f,     -0.083148f,      0.014535f,     -0.056739f,      0.028342f,     -0.049287f,      0.000136f,     -0.048628f,
     -0.027322f,      0.061021f,      0.047853f,      0.060443f,      0.010108f,      0.012218f,     -0.013790f,     -0.002273f,
      0.018931f,      0.084938f,     -0.036162f,      0.032574f,      0.011445f,     -0.041551f,      0.001500f,     -0.007682f,
     -0.006331f,     -0.091495f,      0.000227f,     -0.017094f,     -0.067314f,     -0.053350f,      0.007964f,      0.116259f,
      0.013794f,     -0.029711f,     -0.011596f,     -0.024398f,     -0.027479f,      0.048321f,     -0.024826f,     -0.080655f,
      0.007171f,      0.090908f,      0.056434f,      0.049002f,     -0.057450f,      0.011522f,     -0.003127f,      0.085093f,
     -0.027662f,     -0.025982f,     -0.009603f,      0.008910f,      0.056750f,     -0.000527f,      0.018011f,      0.041928f,
     -0.123352f,     -0.100869f,     -0.053189f,      0.048191f,     -0.029861f,     -0.099247f,     -0.012324f,     -0.012956f,
      0.013508f,     -0.038397f,     -0.031664f,      0.036626f,      0.022743f,     -0.013511f,      0.017482f,      0.064079f,
     -0.055134f,      0.060786f,      0.004554f,      0.012243f,      0.068069f,      0.032123f,     -0.021963f,      0.052802f,
      0.014944f,     -0.011846f,      0.034792f,     -0.052183f,      0.045329f,      0.029436f,      0.008449f,     -0.006087f,
     -0.034005f,      0.025759f,     -0.061033f,     -0.017152f,      0.030728f,      0.016812f,     -0.037395f,     -0.031167f,
     -0.023777f,      0.008816f,      0.008809f,     -0.020367f,     -0.013181f,      0.054948f,     -0.019920f,     -0.025224f,
     -0.027994f,      0.036871f,      0.099940f,     -0.003930f,     -0.004103f,     -0.044708f,     -0.104410f,     -0.018580f,
      0.030207f,      0.030606f,     -0.017398f,      0.028707f,     -0.015883f,      0.021227f,     -0.013658f,      0.043389f,
      0.076575f,     -0.100831f,      0.101430f,      0.078260f,      0.002626f,     -0.029201f,      0.006927f,      0.079146f,
      0.061449f,      0.066814f,     -0.028774f,      0.089272f,      0.099727f,      0.016096f,     -0.032791f,      0.099483f,
      0.053470f,     -0.057371f,     -0.007938f,     -0.070078f,     -0.075352f,     -0.068242f,     -0.029211f,      0.048020f,
     -0.032138f,     -0.051604f,     -0.023952f,      0.044712f,      0.080794f,      0.152332f,      0.060181f,      0.001552f,
      0.045201f,      0.044460f,     -0.043763f,      0.013779f,      0.143192f,      0.047911f,     -0.045198f,     -0.003129f,
     -0.008318f,     -0.014202f,      0.033193f,      0.052959f,     -0.022601f,     -0.007216f,      0.005214f,      0.048518f,
      0.006659f,     -0.180461f,      0.008208f,     -0.055740f,     -0.030529f,     -0.059010f,     -0.105110f,      0.036921f,
     -0.032433f,     -0.038316f,     -0.010683f,      0.018146f,     -0.018870f,     -0.052912f,     -0.101409f,      0.083253f,
      0.003038f,     -0.029105f,      0.124982f,      0.007405f,     -0.058191f,     -0.077837f,      0.026575f,     -0.033039f,
     -0.027390f,      0.004797f,     -0.048283f,     -0.012575f,     -0.025208f,      0.031489f,      0.002042f,     -0.010480f,
     -0.048902f,     -0.040007f,      0.053222f,      0.098070f,     -0.058910f,     -0.024540f,      0.049329f,      0.011793f,
      0.053088f,      0.043306f,     -0.026167f,     -0.064805f,      0.013053f,      0.042464f,     -0.058425f,     -0.022413f,
      0.071719f,      0.011276f,      0.013761f,     -0.028109f,     -0.030134f,      0.038118f,     -0.018449f,      0.013757f,
     -0.029815f,     -0.025887f,     -0.008946f,     -0.004642f,     -0.056614f,      0.009966f,     -0.023065f,     -0.066983f,
     -0.001521f,      0.037739f,      0.068513f,      0.005606f,     -0.029954f,      0.024114f,     -0.097916f,      0.019070f,
     -0.084875f,     -0.078442f,      0.000485f,     -0.015020f,      0.004785f,      0.107150f,     -0.056578f,     -0.008571f,
     -0.010562f,      0.024602f,     -0.037446f,      0.006889f,     -0.033058f,      0.067352f,      0.017728f,     -0.023342f,
      0.068989f,      0.021368f,     -0.091193f,      0.061594f,     -0.033771f,     -0.002572f,     -0.101028f,      0.002286f,
      0.091274f,      0.030597f,     -0.068550f,      0.019656f,      0.044298f,      0.076712f,     -0.000857f,     -0.019219f,
      0.010209f,      0.039909f,      0.033990f,     -0.029976f,      0.018392f,     -0.036032f,      0.024226f,     -0.021027f,
      0.041205f,      0.072977f,     -0.022595f,     -0.065506f,     -0.045387f,     -0.043225f,      0.040755f,      0.013601f,
      0.006907f,      0.023744f,     -0.097687f,     -0.029770f,     -0.071528f,     -0.094583f,     -0.084104f,      0.030572f,
      0.060765f,      0.126920f,     -0.045823f,      0.018028f,     -0.026718f,      0.056439f,      0.047848f,      0.040882f,
     -0.052599f,     -0.108981f,     -0.002614f,      0.051180f,     -0.022991f,     -0.034622f,     -0.037683f,      0.005114f,
     -0.034933f,     -0.005920f,      0.039530f,     -0.050697f,      0.044865f,      0.048250f,      0.019775f,      0.001271f,
      0.057413f,      0.009944f,      0.019946f,      0.015290f,      0.098664f,      0.058653f,     -0.058453f,      0.104921f,
     -0.025972f,     -0.042978f,      0.005964f,     -0.008951f,     -0.018589f,      0.062713f,     -0.013346f,     -0.054985f,
      0.092679f,      0.009530f,     -0.000275f,      0.044149f,      0.015142f,      0.012523f,      0.057913f,      0.025135f,
     -0.081516f,     -0.036016f,     -0.034680f,      0.011956f,     -0.015447f,      0.018999f,      0.019730f,      0.028036f,
     -0.085719f,      0.008483f,     -0.023711f,      0.013913f,     -0.079834f,     -0.161479f,      0.006088f,     -0.034961f,
     -0.030552f,      0.071153f,     -0.011939f,      0.013456f,     -0.007504f,      0.010953f,      0.003103f,     -0.171654f,
      0.054478f,     -0.026440f,      0.066569f,     -0.029157f,     -0.055898f,      0.074587f,      0.061301f,     -0.057297f,
     -0.038320f,      0.055103f,      0.125603f,      0.021784f,      0.038685f,      0.019263f,      0.042435f,      0.058384f,
      0.013917f,      0.010288f,      0.014231f,     -0.019872f,      0.055603f,     -0.059773f,      0.001387f,      0.041392f,
     -0.055656f,     -0.073548f,      0.019358f,      0.052310f,     -0.120195f,     -0.002829f,     -0.064097f,     -0.005651f,
      0.073623f,      0.026101f,     -0.020874f,      0.008178f,      0.046938f,     -0.030505f,      0.034639f,     -0.003077f,
      0.070154f,      0.025915f,     -0.074776f,      0.000728f,      0.016134f,     -0.012494f,     -0.044625f,     -0.016499f,
      0.025695f,     -0.023658f,     -0.052838f,      0.030092f,     -0.049971f,      0.043615f,     -0.013441f,      0.066124f,
